tree
version=v4
num_class=5
num_tree_per_iteration=5
label_index=0
max_feature_idx=34
objective=multiclass num_class:5
feature_names=age gender city state membership_tier recent_avg_amount recent_max_amount recent_min_amount recent_std_amount recent_premium_store_ratio recent_express_store_ratio recent_hypermarket_ratio recent_supermarket_ratio recent_wholesale_club_ratio recent_groceries_spend_ratio recent_groceries_quantity_ratio recent_electronics_spend_ratio recent_electronics_quantity_ratio recent_household_spend_ratio recent_household_quantity_ratio recent_fashion_spend_ratio recent_fashion_quantity_ratio recent_personal_care_spend_ratio recent_personal_care_quantity_ratio morning_ratio afternoon_ratio evening_ratio night_ratio primary_payment payment_upi_ratio payment_credit_card_ratio payment_debit_card_ratio payment_cash_ratio payment_net_banking_ratio festival_shopping_ratio
feature_infos=[18:71] [0:1] [0:24] [0:4] [0:3] [-2.2351994390409362:4.5544512555535865] [-2.49336310424688:3.3169923329621378] [-1.2463367115984698:6.7992221352334852] [-3.0800822421406413:3.4441422426371311] [-1.7009621260186578:3.5563696383258603] [-1.3711293000599662:5.7646827743023303] [-1.3248681886349396:3.9698745956841606] [-1.5300697338310709:5.1432239934173136] [-1.1968072146549027:6.1796888498423694] [-1.6895790654179454:12.137029071307362] [-2.6566877207529465:6.3858258931412903] [-4.2490684581987619:2.2156357489465357] [-3.1029071689138719:3.4430079819842847] [-2.2767930249292432:6.8059197388567334] [-2.8733456555047732:2.8698653219842591] [-2.2246615177096865:3.4306122191023114] [-2.4801190575023693:3.0814898263475956] [-2.0281359101270588:4.616738603923265] [-3.1427560272128563:3.1352201337722736] [-1.6211524915337825:3.6048280539261972] [-1.4470206770701488:5.3479467804656862] [-1.4782703427127899:3.898665128092794] [-1.944074417624964:3.7809544845669816] [0:4] [-1.4051212381010967:5.7113040947474047] [-1.4368433242484184:5.6599865387990826] [-1.4039427437923047:5.5715925847550851] [-1.4553773904735534:3.4890196764893746] [-1.4278473514551615:3.2707853394935644] [-3.4904542481892662:2.0533714349843675]
tree_sizes=546 642 1371 848 444 1168 651 1078 861 450 552 657 1398 1518 872 551 658 1824 1400 452 1179 654 1184 865 452 550 654 983 764 553 555 654 1092 1504 555 1195 654 1603 1192 554 1085 653 1088 763 560 1196 656 980 764 558 1189 658 974 760 1082 549 654 1505 1296 555 549 660 977 762 555 553 657 976 762 558 548 658 1290 763 555 550 655 1183 764 978 1174 654 1182 1296 954 1196 654 1082 870 556 1278 1717 1936 865 555 549 655 1288 1517 558 553 659 1083 763 554 555 665 1081 765 1188 549 657 1078 767 557 552 1387 1836 765 853 1171 659 1077 1398 850 551 639 1484 1394 454 555 1720 1189 1389 453 553 637 1187 762 454 550 638 1716 761 873 554 1404 1186 761 453 448 659 1170 749 552 451 662 1399 754 557 453 662 1295 750 554 453 660 1084 1295 558 452 664 1174 749 557 557 555 981 1505 554 548 656 1289 872 971 556 655 1087 1511 446 1196 653 1499 867 450 448 1728 1296 1393 451 551 1615 1610 767 554 550 1400 975 869 554 556 1607 1395 868 866 555 655 1086 869 972 551 1732 870 870 556 1269 1506 1405 1405 552 1268 1727 1081 1508 554 447 661 1622 765 554 452 654 1729 762 551 450 658 1297 1402 554 549 658 872 769 454 1085 657 876 866 454 554 656 974 1403 1063 556 655 1087 764 454 553 1812 876 873 452 549 758 1407 866 1294 555 553 1403 768 552 551 1810 1195 769 555 1186 551 1085 769 552 1296 1833 1085 769 551 1084 660 1084 1618 557 553 654 1297 859 557 1062 661 1720 859 556 451 652 1082 857 555 548 1270 1084 754 559 1169 556 1090 847 982 556 660 1173 748 555 555 1725 1186 1719 963 1193 557 1198 852 554 1197 556 1090 854 553 448 658 1090 765 557 972 556 1511 1297 1079 974 555 1291 848 556 1186 555 1405 873 454 1290 556 1296 874 1194 553 1512 1085 871 559 555 658 1086 763 662 558 661 1080 1516 661 553 660 1195 867 559 556 1494 1291 1516 661 1182 1623 1803 745 558 552 659 1297 875 450 556 1402 1088 768 453 553 658 1196 868 452 450 658 1829 766 452 534 1507 1622 1603 980 532 1941 1286 766 555 535 1591 1302 870 978 531 1622 1301 764 558 534 667 1277 1471 977 548 642 1190 1607 551 552 1624 1086 771 551 1407 1401 1707 1521 555 1304 663 1616 763 555 1086 658 1300 1604 555 552 1616 986 769 553 452 1507 986 1515 555 979 1619 1168 1490 556 550 552 1195 768 555 552 666 1600 770 555 554 659 1812 1707 452 1077 766 1407 661 535 556 662 1608 1487 553 533 663 1403 659 554 534 769 1617 659 557 1292 1512 1300 762 556 1303 768 1307 762 1191 554 1723 1200 759 555 1186 763 1300 764 981 1300 1616 1306 760 556 1080 1508 1298 873 554 555 743 1513 869 984 555 764 1831 1525 554 553 765 1303 759 554 555 745 1521 762 555 551 656 1293 770 553 553 1510 1296 765 560 1294 658 1492 761 559 1290 659 1298 765 559 538 1595 1612 976 559 1195 645 1298 875 556 1085 1617 1618 763 556 558 665 1091 766 553 555 663 1090 873 554 554 664 1091 1198 554 556 1512 1410 1624 536 556 1815 1194 868 538 1298 663 1939 1520 537 558 764 1195 873 537 1171 764 1199 876 539 556 661 1083 761 557 555 662 1299 870 874 1186 661 1192 1283 1366 1191 1483 1297 1281 878 560 1493 1621 869 873 561 667 1083 763 541 563 1500 1198 871 536 1190 665 1720 764 540 560 664 1091 871 537

Tree=0
num_leaves=4
num_cat=0
split_feature=10 10 11
split_gain=104.385 24.6057 6.27637
threshold=1.6615908315440093 1.1365989432159262 -0.17767391869913463
decision_type=2 2 2
left_child=1 -1 -3
right_child=-2 2 -4
leaf_value=-2.5661082285835484 -2.4845459705603306 -2.551813943933706 -2.5215842212346069
leaf_weight=22.609898693859584 1.7873437702655781 1.3405078276991846 1.5192422047257412
leaf_count=253 20 15 17
internal_value=-2.55748 -2.56259 -2.53524
internal_weight=0 25.4696 2.85975
internal_count=305 285 32
is_linear=0
shrinkage=1


Tree=1
num_leaves=5
num_cat=0
split_feature=11 11 8 11
split_gain=143.049 17.5083 3.78232 2.55527
threshold=0.84597635293589135 1.0224677790798615 -0.11834863226784173 0.4253384539594296
decision_type=2 2 2 2
left_child=3 2 -2 -1
right_child=1 -3 -4 -5
leaf_value=-1.5947860363295587 -1.5787081712268485 -1.5473619062326003 -1.5626091622119553 -1.5854402686451508
leaf_weight=45.225562870502472 3.0557812750339508 7.537593811750412 3.055781275033949 3.25950002670288
leaf_count=222 15 37 15 16
internal_value=-1.58475 -1.55758 -1.57046 -1.59417
internal_weight=0 13.6492 6.11156 48.4851
internal_count=305 67 30 238
is_linear=0
shrinkage=1


Tree=2
num_leaves=12
num_cat=0
split_feature=11 12 10 13 13 14 10 12 11 14 6
split_gain=35.2483 41.4319 24.7205 15.5341 8.57389 5.04562 3.93435 1.83671 1.51348 2.55544 0.361072
threshold=0.4253384539594296 0.58313994646425105 1.1365989432159262 0.96345234709072691 -0.82798241143003892 -0.69123991750112013 1.3404792881977061 0.25741965739617506 1.0224677790798615 0.060388669812264949 0.63628469972684232
decision_type=2 2 2 2 2 2 2 2 2 2 2
left_child=1 2 3 7 -3 -2 -4 -1 9 -7 -6
right_child=5 4 6 -5 10 8 -8 -9 -10 -11 -12
leaf_value=-0.81407911166082991 -0.83240924789345294 -0.83161299907588326 -0.83039128819462937 -0.83172221738003183 -0.84641227934055241 -0.84630922403166697 -0.8422974764221981 -0.82070508127077657 -0.84644997469239214 -0.83617167558850858 -0.84201579513238001
leaf_weight=23.34862577915192 4.9155001640319851 7.9876877665519741 6.1443752050399763 7.3732502460479727 7.6804690062999708 4.6082814037799853 4.9155001640319824 6.1443752050399771 10.138219088315962 5.8371564447879791 4.6082814037799835
leaf_count=76 16 26 20 24 25 15 16 20 33 19 15
internal_value=-0.832409 -0.827665 -0.822594 -0.818662 -0.839622 -0.841433 -0.835659 -0.81542 -0.843602 -0.840737 -0.84485
internal_weight=0 68.2026 47.9261 36.8663 20.2764 25.4992 11.0599 29.493 20.5837 10.4454 12.2888
internal_count=305 222 156 120 66 83 36 96 67 34 40
is_linear=0
shrinkage=1


Tree=3
num_leaves=7
num_cat=0
split_feature=12 12 13 10 12 32
split_gain=134.176 15.4791 16.3762 7.64608 5.68277 6.47339
threshold=0.83338846123606547 0.25741965739617506 -0.41817707451352387 -0.46725977064074214 1.6212078595917776 1.0000000180025095e-35
decision_type=2 2 2 2 2 2
left_child=1 -1 -3 -4 5 -2
right_child=4 2 3 -5 -6 -7
leaf_value=-1.5947823095351801 -1.5497299550000407 -1.5946131410864446 -1.5819279730298272 -1.5593893604089768 -1.546217182728334 -1.5693921200572363
leaf_weight=38.70656281709671 3.055781275033949 5.0929687917232513 3.0557812750339508 3.055781275033949 4.8892500400543213 4.2780937850475311
leaf_count=190 15 25 15 15 24 21
internal_value=-1.58475 -1.59179 -1.58148 -1.57046 -1.55488 -1.56095
internal_weight=0 49.9111 11.2045 6.11156 12.2231 7.33388
internal_count=305 245 55 30 60 36
is_linear=0
shrinkage=1


Tree=4
num_leaves=3
num_cat=0
split_feature=13 13
split_gain=152.17 3.18389
threshold=1.4157018081878812 0.96345234709072691
decision_type=2 2
left_child=1 -1
right_child=-2 -3
leaf_value=-2.5661087103516786 -2.4727604307200299 -2.5544212530192958
leaf_weight=22.878000259399421 1.8767109587788571 2.50228127837181
leaf_count=256 21 28
internal_value=-2.55748 -2.56493
internal_weight=0 25.3803
internal_count=305 284
is_linear=0
shrinkage=1


Tree=5
num_leaves=10
num_cat=0
split_feature=9 30 6 16 30 34 9 5 24
split_gain=10.4327 14.1964 6.60966 11.2811 2.79247 4.4303 5.29243 1.94356 0.366134
threshold=-1.0350334358683522 -0.59902313208308822 -1.1097960493221661 -0.60500218309225262 -0.33852441687201934 -0.56454624873651493 -1.0000000180025095e-35 1.1999765239368696 0.50656815911778075
decision_type=2 2 2 2 2 2 2 2 2
left_child=1 -1 3 -2 -4 6 -6 8 -7
right_child=2 -3 4 -5 5 7 -8 -9 -10
leaf_value=0.040591628941961881 0.030728736879222819 0 -0.0085623940476569609 -0.0080326896913184929 0.021263855648603558 -0.0084956871592478684 -0.002975335199066273 0.005644713890477676 -0.0026733693965735358
leaf_weight=1.3690782785415652 1.4702338576316836 2.2512753978371647 8.7992577776312881 1.4210198745131553 1.6177442073822024 5.3393559530377228 1.8700937628746093 1.3421611338853834 1.7743586003780363
leaf_count=15 16 25 99 16 18 60 21 15 20
internal_value=0 0.0158197 -0.00229805 0.0116952 -0.00429598 -0.00108852 0.00826769 -0.00503242 -0.00714203
internal_weight=0 3.62035 23.6342 2.89125 20.743 11.9437 3.48784 8.45588 7.11371
internal_count=305 40 265 32 233 134 39 95 80
is_linear=0
shrinkage=0.01


Tree=6
num_leaves=5
num_cat=0
split_feature=11 11 6 11
split_gain=138.442 16.2311 3.64013 2.53715
threshold=0.84597635293589135 1.0224677790798615 0.10336327164713885 0.4253384539594296
decision_type=2 2 2 2
left_child=3 2 -2 -1
right_child=1 -3 -4 -5
leaf_value=-0.010013475601735003 0.005891074574825979 0.03601583341826136 0.02159896520443514 -0.00069908052922589849
leaf_weight=44.872131958603859 3.0790211260318738 7.74613918364048 3.1030853986740112 3.2605410367250434
leaf_count=222 15 37 15 16
internal_value=0 0.0263496 0.0139659 -0.00939427
internal_weight=0 13.9282 6.18211 48.1327
internal_count=305 67 30 238
is_linear=0
shrinkage=0.01


Tree=7
num_leaves=9
num_cat=0
split_feature=9 12 5 12 33 33 19 21
split_gain=132.936 18.2078 5.23803 3.96346 1.04088 1.02522 1.65475 0.410564
threshold=1.0000000180025095e-35 1.0558315854776785 0.91903710418115792 -1.1964050474686514 -1.0754498996340067 -0.68389717538827965 0.13675859433836643 1.3418797556342403
decision_type=2 2 2 2 2 2 2 2
left_child=2 3 4 -2 -1 6 -5 -6
right_child=1 -3 -4 5 7 -7 -8 -9
leaf_value=-0.0078137754303064608 0.0078409858832893427 -0.0037002897058775446 -0.0032080623990316114 0.0095794729441601393 -0.013699957784113781 0.017721797062095458 0.017926633352442611 -0.0098494932735738155
leaf_weight=4.9092719852924338 6.764270842075347 5.8306267857551566 7.3711165785789481 5.8430312871932966 29.136545687913895 24.019394040107727 4.9262130558490753 4.9113168120384207
leaf_count=16 22 19 24 19 95 78 16 16
internal_value=0 0.0127522 -0.0110565 0.0150745 -0.0125226 0.0164533 0.0135092 -0.0131745
internal_weight=0 47.3835 46.3283 41.5529 38.9571 34.7886 10.7692 34.0479
internal_count=305 154 151 135 127 113 35 111
is_linear=0
shrinkage=0.01


Tree=8
num_leaves=7
num_cat=0
split_feature=12 12 13 12 32 23
split_gain=129.432 15.3118 15.9977 5.23068 6.02827 3.70842
threshold=0.83338846123606547 0.25741965739617506 -0.41817707451352387 1.6212078595917776 1.0000000180025095e-35 0.14182432079630183
decision_type=2 2 2 2 2 2
left_child=1 -1 -3 4 -2 -4
right_child=3 2 5 -5 -6 -7
leaf_value=-0.010010348454048168 0.033828085312651746 -0.0098469250562099996 0.021731875175792434 0.037154962231810182 0.0150150007640396 0.0058730258503097432
leaf_weight=38.411028981208801 3.133322596549986 5.0636855661869049 3.0912458896636945 5.0225167125463486 4.3291735798120499 3.0818610936403275
leaf_count=190 15 25 15 24 21 15
internal_value=0 -0.00700642 0.00321655 0.0289516 0.0231533 0.0140057
internal_weight=0 49.6478 11.2368 12.485 7.4625 6.17311
internal_count=305 245 55 60 36 30
is_linear=0
shrinkage=0.01


Tree=9
num_leaves=3
num_cat=0
split_feature=13 13
split_gain=140.099 3.15862
threshold=1.4157018081878812 0.96345234709072691
decision_type=2 2
left_child=1 -1
right_child=-2 -3
leaf_value=-0.008624587884220691 0.078076254104744502 0.0029950015288678234
leaf_weight=22.691645920276649 2.0227371454238883 2.5147856250405303
leaf_count=256 21 28
internal_value=0 -0.0074419
internal_weight=0 25.2064
internal_count=305 284
is_linear=0
shrinkage=0.01


Tree=10
num_leaves=4
num_cat=0
split_feature=10 10 11
split_gain=94.9772 23.0936 5.66079
threshold=1.1365989432159262 1.6615908315440093 -0.17767391869913463
decision_type=2 2 2
left_child=-1 2 -2
right_child=1 -3 -4
leaf_value=-0.0086216112398863481 0.0055035364881992899 0.066294759528541317 0.033866822287571818
leaf_weight=22.355081267654899 1.3553251326084137 1.9480973929166792 1.5925231724977484
leaf_count=253 15 20 17
internal_value=0 0.0397952 0.0213024
internal_weight=0 4.89595 2.94785
internal_count=305 52 32
is_linear=0
shrinkage=0.01


Tree=11
num_leaves=5
num_cat=0
split_feature=11 11 7 11
split_gain=134.406 15.1326 3.68599 2.52286
threshold=0.84597635293589135 1.0224677790798615 -0.24235351985666945 0.4253384539594296
decision_type=2 2 2 2
left_child=3 2 -2 -1
right_child=1 -3 -4 -5
leaf_value=-0.0099883393131466221 0.021357735688234576 0.034827584736588119 0.00564613949783771 -0.00069652402156281437
leaf_weight=44.541569724678993 3.1246329694986343 7.9354587644338608 3.1184505224227888 3.2598506808280936
leaf_count=222 15 37 15 16
internal_value=0 0.0256391 0.0136964 -0.00936652
internal_weight=0 14.1785 6.24308 47.8014
internal_count=305 67 30 238
is_linear=0
shrinkage=0.01


Tree=12
num_leaves=12
num_cat=0
split_feature=11 12 10 13 13 14 5 12 11 14 7
split_gain=33.6588 39.382 23.7976 14.739 8.33526 4.88318 3.82149 1.72864 1.44455 2.47853 0.360001
threshold=0.4253384539594296 0.58313994646425105 1.1365989432159262 0.96345234709072691 -0.82798241143003892 -0.69123991750112013 -0.12902081511947192 0.25741965739617506 1.0224677790798615 0.060388669812264949 -0.46389139835287557
decision_type=2 2 2 2 2 2 2 2 2 2 2
left_child=1 2 3 7 -3 -2 -4 -1 9 -7 -6
right_child=5 4 6 -5 10 8 -8 -9 -10 -11 -12
leaf_value=0.017833544882428755 1.0164941203765038e-05 0.00083091467660693951 -0.0088260080422893194 0.00066457993758470193 -0.0094090802181413177 -0.013687704434885345 0.0028508384877551046 0.011408820098590599 -0.013782456799436934 -0.0036853242921702977 -0.013792997404165522
leaf_weight=23.48383450508118 4.9123836457729366 7.9823441803455379 5.8329357802867889 7.3750846087932578 4.5888811647892007 4.5856515467166918 5.2299748957157117 6.1676801145076743 10.076722681522368 5.8284348845481873 7.6433791518211338
leaf_count=76 16 26 19 24 15 15 17 20 33 19 25
internal_value=0 0.00462451 0.00954917 0.0133929 -0.00706099 -0.0088451 -0.00327281 0.0165355 -0.0109872 -0.00818183 -0.0122341
internal_weight=0 68.3041 48.0895 37.0266 20.2146 25.4032 11.0629 29.6515 20.4908 10.4141 12.2323
internal_count=305 222 156 120 66 83 36 96 67 34 40
is_linear=0
shrinkage=0.01


Tree=13
num_leaves=13
num_cat=0
split_feature=9 11 13 11 13 14 3 16 0 33 25 21
split_gain=25.0099 40.3412 11.2382 7.1632 7.8739 4.6189 3.20031 1.7028 1.21313 2.11999 0.821695 0.0783907
threshold=-0.21138479278771125 -0.17767391869913463 0.96345234709072691 0.84597635293589135 -1.0000000180025095e-35 -0.95665560817362605 1.0000000180025095e-35 -0.09889415973950029 35.500000000000007 -0.48392560550564051 -0.72977411210803278 0.27881564662662228
decision_type=2 2 2 2 2 2 2 2 2 2 2 2
left_child=1 2 7 4 -3 -2 -7 -1 -8 -10 -5 -11
right_child=5 3 -4 10 -6 6 8 -9 9 11 -12 -13
leaf_value=0.036133305406872256 0.0059703655846431837 0.016516295292084808 0.0091470791140192825 -0.0032454169510960679 -0.0034509240228396193 0.00094228868259223567 -0.0099533796096222971 0.023959092179170693 0.00065957306416228767 -0.0097904021345682334 -0.0098796593153449314 -0.0064582484341723792
leaf_weight=3.4018159061670303 3.0656321495771399 3.3264609426259995 4.1076445728540421 3.0386152267456081 4.6546062082052257 4.4890612512826946 15.280594751238825 3.1703364402055758 3.6762177497148514 4.2293253540992719 6.6554613560438112 3.0275560617446899
leaf_count=16 15 16 20 15 23 22 76 15 18 21 33 15
internal_value=0 0.0071527 0.0224526 -0.00210098 0.00486005 -0.00557469 -0.00675154 0.0305613 -0.00808742 -0.0054005 -0.00787879 -0.00852237
internal_weight=0 28.3549 10.6798 17.6751 7.98107 33.7684 30.7028 6.57215 26.2137 10.9331 9.69408 7.25688
internal_count=305 138 51 87 39 167 152 31 130 54 48 36
is_linear=0
shrinkage=0.01


Tree=14
num_leaves=7
num_cat=0
split_feature=9 12 11 11 28 14
split_gain=21.8106 18.8567 42.3249 6.67233 7.10062 2.03232
threshold=-0.36910474571804669 0.25741965739617506 -1.0000000180025095e-35 1.0224677790798615 2.5000000000000004 -0.5264444694858712
decision_type=2 2 2 2 2 2
left_child=1 2 -1 4 -4 -3
right_child=-2 5 3 -5 -6 -7
leaf_value=0.065110146573583952 -0.0086027596826449698 0.0055125453177998817 -0.00085371678170943299 -0.0081941794855285247 0.030199797250190775 -0.008419650861236869
leaf_weight=1.5736564770340917 15.695779651403425 1.3542128577828405 1.3474443927407285 1.9422864168882368 1.4903177618980405 3.7951411977410316
leaf_count=16 178 15 15 22 16 43
internal_value=0 0.00948508 0.0209591 0.00579686 0.0155221 -0.00464172
internal_weight=0 11.5031 6.35371 4.78005 2.83776 5.14935
internal_count=305 127 69 53 31 58
is_linear=0
shrinkage=0.01


Tree=15
num_leaves=4
num_cat=0
split_feature=10 10 16
split_gain=91.0019 20.4066 5.82048
threshold=1.1365989432159262 1.6615908315440093 -0.09889415973950029
decision_type=2 2 2
left_child=-1 2 -2
right_child=1 -3 -4
leaf_value=-0.0086151553630146732 0.0050734587093331967 0.062250750947926939 0.033486852372455626
leaf_weight=22.179064720869068 1.3966423571109774 2.0603878647089005 1.606988176703452
leaf_count=253 15 20 17
internal_value=0 0.0381696 0.0207382
internal_weight=0 5.06402 3.00363
internal_count=305 52 32
is_linear=0
shrinkage=0.01


Tree=16
num_leaves=5
num_cat=0
split_feature=11 11 7 11
split_gain=130.247 14.0836 3.51461 2.50386
threshold=0.84597635293589135 1.0224677790798615 -0.24235351985666945 0.4253384539594296
decision_type=2 2 2 2
left_child=3 2 -2 -1
right_child=1 -3 -4 -5
leaf_value=-0.0099617098465124097 0.020812854432122645 0.033633360581851061 0.0055425705078209174 -0.00070404411873388505
leaf_weight=44.187476262450218 3.1743343770503998 8.133637920022009 3.1353466510772696 3.2617420703172675
leaf_count=222 15 37 15 16
internal_value=0 0.0249084 0.0134067 -0.00933726
internal_weight=0 14.4433 6.30968 47.4492
internal_count=305 67 30 238
is_linear=0
shrinkage=0.01


Tree=17
num_leaves=16
num_cat=0
split_feature=11 10 11 3 14 22 16 20 14 17 24 7 11 14 25
split_gain=32.8375 16.6685 8.15409 5.67428 5.34568 5.20182 5.00988 4.8215 4.80488 4.59857 3.47449 2.63959 1.40747 2.44485 0.915138
threshold=0.4253384539594296 1.6615908315440093 -0.33210391657510835 1.0000000180025095e-35 -0.78304190726457346 -0.18527466442206567 -0.83089421087615356 -0.43184013078259748 -0.69123991750112013 0.16774717311611451 -0.20267205776607358 -0.16161136396893208 1.0224677790798615 0.060388669812264949 0.37305989191266409
decision_type=2 2 2 2 2 2 2 2 2 2 2 2 2 2 2
left_child=1 2 3 -1 -5 14 -6 9 -2 -8 -7 -9 13 -10 -4
right_child=8 -3 5 4 6 10 7 11 12 -11 -12 -13 -14 -15 -16
leaf_value=-0.0058255639736634066 3.2098092223176588e-05 -0.013717076419610143 0.017608073838672748 -0.0052421885910709015 -0.0030806346384789191 0.010364374336462668 -0.0038301554191381873 0.01758715381038695 -0.013585806515617836 0.0097339488185896866 0.00030027785388385343 0.0080835782155180454 -0.013647492398755139 -0.0036420948243327841 0.011152893173311567
leaf_weight=6.1323831081390372 4.9104076623916653 4.5883186757564536 7.1131650507450122 4.6002071201801327 4.5996633172035244 8.0252788066863996 4.9095335602760368 5.5648569166660344 4.5735696554183978 4.9335402548313141 6.1515122056007376 7.0882383584976107 10.040084183216093 5.8235514760017395 4.6355721354484558
leaf_count=20 16 15 23 15 15 26 16 18 15 16 20 23 33 19 15
internal_value=0 0.00456293 0.00589608 0.00291059 0.00462308 0.010219 0.00632295 0.00827039 -0.0087509 0.00293273 0.00604897 0.0123554 -0.0108805 -0.00810816 0.0151616
internal_weight=0 68.3423 63.754 37.8284 31.696 25.9255 27.0958 22.4962 25.3476 9.84307 14.1768 12.6531 20.4372 10.3971 11.7487
internal_count=305 222 207 123 103 84 88 73 83 32 46 41 67 34 38
is_linear=0
shrinkage=0.01


Tree=18
num_leaves=12
num_cat=0
split_feature=9 11 13 11 13 11 13 9 16 2 2
split_gain=24.5156 38.8113 10.5633 7.07294 7.62862 3.47817 5.67213 9.80592 1.54908 0.819323 0.534793
threshold=-0.21138479278771125 -0.17767391869913463 0.96345234709072691 0.84597635293589135 -1.0000000180025095e-35 -0.33210391657510835 1.0000000180025095e-35 0.74369714440154289 -0.09889415973950029 16.500000000000004 18.500000000000004
decision_type=2 2 2 2 2 2 2 2 2 2 2
left_child=1 2 8 4 -3 6 7 -2 -1 -5 -7
right_child=5 3 -4 9 -6 10 -8 -9 -10 -11 -12
leaf_value=0.034923216484383922 0.012759797084552382 0.016196593414383686 0.008999693216739782 -0.0098558687665588861 -0.0034120916179841399 -0.0099238184037555976 -0.0098432161367125494 -0.0064662548711434441 0.023343549165888017 -0.0032190214982527653 -0.00550173363419134
leaf_weight=3.4865754991769791 4.7568670213222521 3.362161785364151 4.1343947201967239 6.6105991154909116 4.6363048553466824 12.215206831693651 6.2039733082056037 5.8441075384616852 3.2230483889579791 3.0305097103118896 4.6091847270727149
leaf_count=16 23 16 20 33 23 61 31 29 15 15 23
internal_value=0 0.0070543 0.0218993 -0.00207958 0.00481772 -0.00554312 -0.00227455 0.00213331 0.0296486 -0.00784866 -0.00876187
internal_weight=0 28.4836 10.844 17.6396 7.99847 33.6293 16.8049 10.601 6.70962 9.64111 16.8244
internal_count=305 138 51 87 39 167 83 52 31 48 84
is_linear=0
shrinkage=0.01


Tree=19
num_leaves=3
num_cat=0
split_feature=13 13
split_gain=124.834 3.12588
threshold=1.4157018081878812 0.96345234709072691
decision_type=2 2
left_child=1 -1
right_child=-2 -3
leaf_value=-0.0086139797126600619 0.069702838649134596 0.002921933136881172
leaf_weight=22.394889488816268 2.2411910966038695 2.5297994017601004
leaf_count=256 21 28
internal_value=0 -0.00741958
internal_weight=0 24.9247
internal_count=305 284
is_linear=0
shrinkage=0.01


Tree=20
num_leaves=10
num_cat=0
split_feature=9 7 6 16 30 9 2 18 4
split_gain=9.67788 12.9353 6.1988 9.89652 2.7865 3.49808 8.8087 2.09903 1.6496
threshold=-1.0350334358683522 -0.22392364762301689 -1.1097960493221661 -0.60500218309225262 -0.33852441687201934 1.0000000180025095e-35 6.5000000000000009 -0.71924939371717767 1.5000000000000002
decision_type=2 2 2 2 2 2 2 2 2
left_child=1 -1 3 -2 -4 6 -6 -7 -8
right_child=2 -3 4 -5 5 7 8 -9 -10
leaf_value=-0.0080614408265095444 0.027820642920147964 0.029477439933154104 -0.0085471510129343595 -0.0080056655326261345 0.026380364799614121 0.0047986155250501136 -0.0082544475230481168 -0.0084826010302434356 0.0054063235940591823
leaf_weight=1.4478202238678934 1.5879164785146715 2.3031536564230946 8.6413218304514938 1.3931552767753661 1.3735927641391663 1.429157890379434 2.2143000364303593 5.4791706874966568 1.3640566766262052
leaf_count=16 16 24 99 16 15 16 25 63 15
internal_value=0 0.014941 -0.002255 0.011057 -0.00423717 -0.00103227 0.00529977 -0.00564846 -0.00290647
internal_weight=0 3.75097 23.4827 2.98107 20.5016 11.8603 4.95195 6.90833 3.57836
internal_count=305 40 265 32 233 134 55 79 40
is_linear=0
shrinkage=0.01


Tree=21
num_leaves=5
num_cat=0
split_feature=11 11 6 11
split_gain=126.261 13.1715 3.38594 2.48585
threshold=0.84597635293589135 1.0224677790798615 0.10336327164713885 0.4253384539594296
decision_type=2 2 2 2
left_child=3 2 -2 -1
right_child=1 -3 -4 -5
leaf_value=-0.0099353291514790252 0.0054062989323541881 0.032525236842573878 0.020318218339748836 -0.00070933283297715851
leaf_weight=43.833024576306343 3.1577066183090201 8.3248281031846982 3.2204887270927429 3.2630251497030249
leaf_count=222 15 37 15 16
internal_value=0 0.024211 0.0131129 -0.00930815
internal_weight=0 14.703 6.3782 47.096
internal_count=305 67 30 238
is_linear=0
shrinkage=0.01


Tree=22
num_leaves=10
num_cat=0
split_feature=9 9 5 18 31 25 22 32 18
split_gain=126.187 7.78817 5.04553 4.99944 5.46808 1.33669 0.730856 1.6535 0.617905
threshold=1.0000000180025095e-35 0.74369714440154289 0.91903710418115792 -0.076745284863734733 -0.32439560961235137 -1.0000000180025095e-35 -0.35283101431977087 0.11034834739804057 0.32715815366957873
decision_type=2 2 2 2 2 2 2 2 2
left_child=2 3 6 4 -2 -5 7 -1 -3
right_child=1 8 -4 5 -6 -7 -8 -9 -10
leaf_value=-0.013641406793285345 0.010861693423476768 0.017534180347075715 -0.0031320816490938482 0.009795406863467946 -0.0022427708350543866 0.017419055421452116 -0.01340616209173193 -0.006410910078510676 0.013220077060581266
leaf_weight=7.004594534635542 5.870796799659729 17.350195229053501 7.3557869493961325 6.1659157574176788 6.7550255060195941 4.6428230404853803 24.999197572469711 6.7209617793560028 6.8010899722576132
leaf_count=23 19 56 24 20 22 15 82 22 22
internal_value=0 0.0123615 -0.0108421 0.00818324 0.00382995 0.0131813 -0.0122878 -0.0101733 0.0163698
internal_weight=0 47.5858 46.0805 23.4346 12.6258 10.8087 38.7248 13.7256 24.1513
internal_count=305 154 151 76 41 35 127 45 78
is_linear=0
shrinkage=0.01


Tree=23
num_leaves=7
num_cat=0
split_feature=12 12 9 13 9 13
split_gain=120.561 14.948 15.3588 7.03957 4.99939 0.747243
threshold=0.83338846123606547 0.25741965739617506 1.0000000180025095e-35 0.15555039716959723 0.1466144654509868 -0.20888363458830372
decision_type=2 2 2 2 2 2
left_child=1 -1 3 -3 5 -2
right_child=4 2 -4 -5 -6 -7
leaf_value=-0.009956504355761054 0.034706479975591904 0.0025410497984613952 -0.0098191434221872962 0.023876583963717283 0.017721254399360547 0.026021269966881179
leaf_weight=37.795012265443802 5.4973128736019126 3.1064380854368192 5.0231136828660965 3.1772275269031525 4.2453785091638556 3.2533724606037131
leaf_count=190 25 15 25 15 20 15
internal_value=0 -0.00693854 0.00310495 0.0135113 0.0272577 0.0317004
internal_weight=0 49.1018 11.3068 6.28367 12.9961 8.75069
internal_count=305 245 55 30 60 40
is_linear=0
shrinkage=0.01


Tree=24
num_leaves=3
num_cat=0
split_feature=13 13
split_gain=116.769 3.10762
threshold=1.4157018081878812 0.96345234709072691
decision_type=2 2
left_child=1 -1
right_child=-2 -3
leaf_value=-0.0086074966692706398 0.065286453331294597 0.0028826785503444684
leaf_weight=22.216022789478309 2.3757038339972487 2.5379747077822676
leaf_count=256 21 28
internal_value=0 -0.00740584
internal_weight=0 24.754
internal_count=305 284
is_linear=0
shrinkage=0.01


Tree=25
num_leaves=4
num_cat=0
split_feature=10 1 3
split_gain=82.0069 18.3989 7.61275
threshold=1.1365989432159262 1.0000000180025095e-35 1.5000000000000002
decision_type=2 2 2
left_child=-1 2 -2
right_child=1 -3 -4
leaf_value=-0.008610676820889623 0.0028143701588179233 0.05587557395327937 0.033525965054859101
leaf_weight=22.790158808231357 1.6724127605557435 2.2681681513786316 1.6032777875661848
leaf_count=262 17 22 16
internal_value=0 0.0341096 0.0182745
internal_weight=0 5.54386 3.27569
internal_count=317 55 33
is_linear=0
shrinkage=0.01


Tree=26
num_leaves=5
num_cat=0
split_feature=11 9 11 19
split_gain=168.056 6.48682 4.13902 0.946692
threshold=0.84597635293589135 0.1466144654509868 0.4253384539594296 0.52483287102625498
decision_type=2 2 2 2
left_child=2 3 -1 -2
right_child=1 -3 -4 -5
leaf_value=-0.0099117809519963691 0.032627283935388891 0.015759344747028853 0.0012939050775266307 0.024423025396795351
leaf_weight=43.511767327785492 9.924810394644739 4.1628442853689185 3.469937562942504 3.3877986371517173
leaf_count=222 44 19 17 15
internal_value=0 0.0272064 -0.00907303 0.0306761
internal_weight=0 17.4755 46.9817 13.3126
internal_count=317 78 239 59
is_linear=0
shrinkage=0.01


Tree=27
num_leaves=8
num_cat=0
split_feature=9 11 12 9 10 4 12
split_gain=127.892 13.919 14.8772 4.65842 2.38591 0.397436 0.790579
threshold=1.0000000180025095e-35 0.84597635293589135 1.0558315854776785 -0.36910474571804669 0.9225245809850573 1.0000000180025095e-35 -1.0000000180025095e-35
decision_type=2 2 2 2 2 2 2
left_child=3 2 4 5 -2 6 -1
right_child=1 -3 -4 -5 -6 -7 -8
leaf_value=-0.0071672971946223985 0.016995535947765952 -0.0024354690987677865 -0.0031706537456734391 -0.0045331294996726482 0.0099515841908635726 -0.013391375882454978 -0.013575543849998562
leaf_weight=4.5755060911178589 30.118858397006989 6.1160931289196006 4.6075659394264212 8.5538245439529401 6.492374211549758 32.208908766508102 4.5698397457599622
leaf_count=15 97 20 15 28 21 106 15
internal_value=0 0.0115555 0.0136441 -0.0113768 0.0157753 -0.0127731 -0.0104802
internal_weight=0 47.3349 41.2188 49.9081 36.6112 41.3543 9.14535
internal_count=317 153 133 164 118 136 30
is_linear=0
shrinkage=0.01


Tree=28
num_leaves=6
num_cat=0
split_feature=12 12 12 9 19
split_gain=126.086 8.61299 6.28914 8.53677 2.84231
threshold=0.58313994646425105 1.0558315854776785 0.25741965739617506 1.0000000180025095e-35 0.38581074071444826
decision_type=2 2 2 2 2
left_child=2 -2 -1 -4 -3
right_child=1 4 3 -5 -6
leaf_value=-0.0099346185012674487 0.012260951778304887 0.031889696558486828 0.010591925889183408 -0.0097626944441180606 0.019691961186863557
leaf_weight=39.889621764421463 4.8474950194358852 8.2241397351026517 3.7977439314126951 4.3828864246606827 3.2795151472091666
leaf_count=202 23 37 18 22 15
internal_value=0 0.0238076 -0.0082981 -0.000245655 0.0285559
internal_weight=0 16.3511 48.0703 8.18063 11.5037
internal_count=317 75 242 40 52
is_linear=0
shrinkage=0.01


Tree=29
num_leaves=4
num_cat=0
split_feature=13 13 3
split_gain=121.039 6.27501 5.47421
threshold=1.6615850103377905 0.96345234709072691 1.5000000000000002
decision_type=2 2 2
left_child=1 -1 -3
right_child=-2 2 -4
leaf_value=-0.0086019169956376273 0.06876467041608493 -0.0081028503040606673 0.017085145548891765
leaf_weight=22.549646712839611 2.2652700543403617 1.486068353056907 1.8849059939384458
leaf_count=262 19 16 20
internal_value=0 -0.00669174 0.00587892
internal_weight=0 25.9206 3.37097
internal_count=317 298 36
is_linear=0
shrinkage=0.01


Tree=30
num_leaves=4
num_cat=0
split_feature=10 1 34
split_gain=78.7847 16.4342 8.48628
threshold=1.1365989432159262 1.0000000180025095e-35 -0.24335634804470943
decision_type=2 2 2
left_child=-1 2 -2
right_child=1 -3 -4
leaf_value=-0.0086039888351158306 0.034353354077360058 0.052759687659274968 0.0022474721864299356
leaf_weight=22.599397808313373 1.5698977038264277 2.3835223838686943 1.7624436244368542
leaf_count=262 15 22 18
internal_value=0 0.0327989 0.0178049
internal_weight=0 5.71586 3.33234
internal_count=317 55 33
is_linear=0
shrinkage=0.01


Tree=31
num_leaves=5
num_cat=0
split_feature=11 11 6 11
split_gain=162.7 6.09094 6.15669 4.10162
threshold=0.84597635293589135 1.0224677790798615 0.14668544807954564 0.4253384539594296
decision_type=2 2 2 2
left_child=3 2 -2 -1
right_child=1 -3 -4 -5
leaf_value=-0.0098872780070238982 0.0080856652302023924 0.031044131960554801 0.027844530131131428 0.0012580214100666729
leaf_weight=43.173339426517487 3.2208971381187466 11.222161069512365 3.3472212553024292 3.4783587604761115
leaf_count=222 15 48 15 17
internal_value=0 0.0264556 0.0183649 -0.00904512
internal_weight=0 17.7903 6.56812 46.6517
internal_count=317 78 30 239
is_linear=0
shrinkage=0.01


Tree=32
num_leaves=9
num_cat=0
split_feature=9 11 12 9 12 31 4 12
split_gain=125.064 13.5426 14.4416 4.57295 1.68587 2.07052 0.389347 0.781345
threshold=1.0000000180025095e-35 0.84597635293589135 1.0558315854776785 -0.36910474571804669 -0.82566650706596345 -1.0000000180025095e-35 1.0000000180025095e-35 -1.0000000180025095e-35
decision_type=2 2 2 2 2 2 2 2
left_child=3 2 4 6 5 -2 7 -1
right_child=1 -3 -4 -5 -6 -7 -8 -9
leaf_value=-0.0070931679309997097 0.0081458839749791005 -0.0023982084434723849 -0.0031114001266442076 -0.0044940862086161361 0.017118330955711941 0.016920040180675441 -0.013278884667986022 -0.013471717300868448
leaf_weight=4.5666958689689636 6.5093751847743988 6.1114027202129355 4.6027071177959433 8.5449810326099378 24.878711402416229 5.2865939140319806 32.098176777362823 4.5559662580490095
leaf_count=15 21 20 15 28 80 17 106 15
internal_value=0 0.0114086 0.0134654 -0.0112779 0.0155608 0.0121752 -0.0126649 -0.0103893
internal_weight=0 47.3888 41.2774 49.7658 36.6747 11.796 41.2208 9.12266
internal_count=317 153 133 164 118 38 136 30
is_linear=0
shrinkage=0.01


Tree=33
num_leaves=13
num_cat=0
split_feature=11 10 6 11 15 20 10 2 2 19 32 5
split_gain=19.6554 10.0044 5.1525 5.02594 4.87324 5.73101 4.0204 3.80655 3.95377 2.39878 1.43581 0.184828
threshold=-0.33210391657510835 -0.2243023595374545 -0.37533868786992636 0.84597635293589135 0.030128028205562814 -0.2874236476953454 0.9225245809850573 17.500000000000004 2.5000000000000004 0.094107896580910552 -0.30757092850001649 0.9340355424441974
decision_type=2 2 2 2 2 2 2 2 2 2 2 2
left_child=1 4 -3 6 5 -1 7 8 -2 -4 -10 -5
right_child=3 2 9 11 -6 -7 -8 -9 10 -11 -12 -13
leaf_value=0.015406519071507497 0.0060484029249757666 0.0086112119831483046 0.00037150535524714339 -0.0098819017867664994 0.019375701910026182 -0.0032280548341456902 -0.0097865534379158667 0.0078908055323613155 -0.0011399860714111458 -0.0097599733970394117 -0.0097511132374238155 -0.0062388193367566925
leaf_weight=3.448972150683403 3.667984724044806 5.2594911754131308 5.6894834786653501 12.441824093461035 6.0158047676086426 3.028352692723276 4.7863744795322409 4.9439101666212073 3.4293168336153039 3.809325248003006 4.9227145463228199 2.9303963035345069
leaf_count=16 18 25 28 63 28 15 24 24 17 19 25 15
internal_value=0 0.00630683 0.000687891 -0.00486732 0.0128755 0.00665968 -0.00173821 0.000525332 -0.00248285 -0.00366901 -0.00630275 -0.00924232
internal_weight=0 27.2514 14.7583 37.1225 12.4931 6.47732 21.7503 16.9639 12.02 9.49881 8.35203 15.3722
internal_count=317 131 72 186 59 31 108 84 60 47 42 78
is_linear=0
shrinkage=0.01


Tree=34
num_leaves=4
num_cat=0
split_feature=13 13 5
split_gain=112.87 6.21626 4.27987
threshold=1.6615850103377905 0.96345234709072691 -0.099147156977352144
decision_type=2 2 2
left_child=1 -1 -3
right_child=-2 2 -4
leaf_value=-0.0085953832410298522 0.064293696693521987 0.018979700445088444 -0.0033977013444808479
leaf_weight=22.36256721615792 2.4040833860635749 1.3925160020589831 1.998495079576968
leaf_count=262 19 15 21
internal_value=0 -0.00667451 0.00578852
internal_weight=0 25.7536 3.39101
internal_count=317 298 36
is_linear=0
shrinkage=0.01


Tree=35
num_leaves=10
num_cat=0
split_feature=17 14 31 13 22 7 26 13 18
split_gain=10.6658 6.14507 2.26047 3.25774 3.86051 4.47424 3.88065 3.19338 0.449468
threshold=-1.2908262583901251 -0.98622849514295741 0.46450421921146062 0.36045306562785479 0.46215504892682596 0.045941541572079567 0.62129493636367616 -0.41817707451352387 -0.70674948455675268
decision_type=2 2 2 2 2 2 2 2 2
left_child=-1 -2 3 4 5 6 8 -7 -3
right_child=1 2 -4 -5 -6 7 -8 -9 -10
leaf_value=0.019714336586494862 0.013804934715599649 -0.00078748761844941984 -0.0085218092114926255 -0.0084685749452693606 -0.0083531244380367804 0.024987377662876668 0.010790803939710025 0.0038209301811639824 -0.0083159192012275292
leaf_weight=2.4064737558364895 2.1651882603764596 1.3360391184687692 6.654652163386344 4.8923780471086493 3.1060229167342177 1.4299703165888789 1.9983737543225286 1.5423710346221922 2.7634223997592864
leaf_count=25 23 15 76 56 36 15 22 17 32
internal_value=0 -0.0020854 -0.00358271 -0.00160859 0.00113021 0.00446053 -0.000387792 0.0144143 -0.00602191
internal_weight=0 25.8884 23.7232 17.0686 12.1762 9.07018 6.09784 2.97234 4.09946
internal_count=317 292 269 193 137 101 69 32 47
is_linear=0
shrinkage=0.01


Tree=36
num_leaves=5
num_cat=0
split_feature=11 9 11 7
split_gain=157.495 5.74478 4.06661 0.847834
threshold=0.84597635293589135 0.1466144654509868 0.4253384539594296 0.10378711484774343
decision_type=2 2 2 2
left_child=2 3 -1 -2
right_child=1 -3 -4 -5
leaf_value=-0.0098628612630581747 0.031327582686953716 0.015046314025981432 0.0012269880508939547 0.02441061529620361
leaf_weight=42.829704731702805 8.7498566806316393 4.2626617699861518 3.4856646209955207 5.0897179991006842
leaf_count=222 37 19 17 22
internal_value=0 0.0257286 -0.00901704 0.0289168
internal_weight=0 18.1022 46.3154 13.8396
internal_count=317 78 239 59
is_linear=0
shrinkage=0.01


Tree=37
num_leaves=14
num_cat=0
split_feature=11 10 13 17 15 15 23 20 21 11 20 8 22
split_gain=34.2987 12.2878 13.2866 6.90853 6.76948 4.62071 4.27363 4.18303 4.09077 3.5714 1.66901 0.914627 1.50403
threshold=0.4253384539594296 1.3404792881977061 1.1390832057692335 -0.80943450835327624 -0.025297942011664312 0.25944121783957952 -1.0309817668226509 -0.25288431817370155 -0.224089498068093 -0.33210391657510835 0.48305318036357509 -0.23006080218184943 -0.22607277839678377
decision_type=2 2 2 2 2 2 2 2 2 2 2 2 2
left_child=1 2 4 -2 7 -6 -7 9 -8 -1 -9 12 -5
right_child=3 -3 -4 11 5 6 8 10 -10 -11 -12 -13 -14
leaf_value=0.001815343052796836 0.00064167974282345176 -0.010214262135295913 -0.0079760950771478704 -0.013126592228073915 -0.0036082535422916184 0.013164643782170677 0.0068616616776887044 0.01686084784370593 -0.0043647179614975185 0.011989995548075991 0.0096295841806061967 -0.013441470280736462 -0.0046745001736824398
leaf_weight=8.6053158044815046 5.4753593802452114 5.7858430147171012 6.9959011375904074 4.5049048066139221 7.6565014421939876 5.28226205706597 8.337898403406145 8.0932227671146375 5.1982390284538189 5.8969367146492013 6.5065303742885598 14.183067351579661 4.5406220853328758
leaf_count=28 18 19 23 15 25 17 27 26 17 19 21 47 15
internal_value=0 0.00364259 0.004939 -0.00937322 0.00657942 0.00288552 0.00555665 0.00991199 0.00251343 0.00601392 0.0137162 -0.0117517 -0.00898785
internal_weight=0 68.3587 62.5728 28.704 55.5769 26.4749 18.8184 29.102 13.5361 14.5023 14.5998 23.2286 9.04553
internal_count=317 222 203 95 180 86 61 94 44 47 47 77 30
is_linear=0
shrinkage=0.01


Tree=38
num_leaves=10
num_cat=0
split_feature=9 11 10 13 11 3 10 22 34
split_gain=23.3731 40.6878 20.9704 13.8571 5.11674 4.45606 2.15164 3.39597 0.0920176
threshold=-0.21138479278771125 0.84597635293589135 0.9225245809850573 1.1390832057692335 -1.0000000180025095e-35 1.0000000180025095e-35 -0.2243023595374545 -0.38077345983644489 0.29782663531271664
decision_type=2 2 2 2 2 2 2 2 2
left_child=1 2 3 4 -1 -2 7 -7 -9
right_child=5 -3 -4 -5 -6 6 -8 8 -10
leaf_value=0.031112705909904868 0.0031603189150777051 -0.0098470111131744205 -0.0026531254388156224 0.0031239416726353028 0.016932594925051014 0.0022266526754395142 -0.0098558101930016212 -0.0097465469849319104 -0.0063047985106614857
leaf_weight=6.9057242870330828 4.4780851602554312 10.593643486499785 5.4110531359910956 3.7201106697320929 4.72605757415295 4.8368596583604813 16.36279833316803 4.3518949300050753 2.9545855224132538
leaf_count=30 22 54 26 18 22 24 84 22 15
internal_value=0 0.00604214 0.0141773 0.0201313 0.0254912 -0.00600639 -0.00746693 -0.00417976 -0.00847506
internal_weight=0 31.3566 20.7629 15.3519 11.6318 32.9842 28.5061 12.1433 7.30648
internal_count=317 150 96 70 52 167 145 61 37
is_linear=0
shrinkage=0.01


Tree=39
num_leaves=4
num_cat=0
split_feature=13 13 3
split_gain=105.833 6.16032 5.2571
threshold=1.6615850103377905 0.96345234709072691 1.5000000000000002
decision_type=2 2 2
left_child=1 -1 -3
right_child=-2 2 -4
leaf_value=-0.0085890205175561379 0.060449868398757274 -0.0080976298686957007 0.016484089401955768
leaf_weight=22.179041303694255 2.5370781496167174 1.4808213189244264 1.9294624850153921
leaf_count=262 19 16 20
internal_value=0 -0.00665743 0.00570289
internal_weight=0 25.5893 3.41028
internal_count=317 298 36
is_linear=0
shrinkage=0.01


Tree=40
num_leaves=9
num_cat=0
split_feature=17 14 27 31 21 21 21 27
split_gain=10.3277 6.00058 10.8745 1.79891 11.1611 0.805882 3.39855 0.374958
threshold=-1.2908262583901251 -0.6763563149555063 -0.26745881055446574 -0.66763623689008 -0.43394885325769655 1.0000000180025095e-35 0.24759904183501794 0.55494613491913913
decision_type=2 2 2 2 2 2 2 2
left_child=-1 2 -2 4 -3 -5 -7 -4
right_child=1 3 7 5 -6 6 -8 -9
leaf_value=0.019216613240737059 0.022201396612874031 0.0227037062595443 -0.0081711823058695475 -0.0085358879020112164 -0.0084273207361213083 0.0078908190544925583 -0.0084354781743395772 -0.00074949826748752868
leaf_weight=2.4487034454941776 2.530576080083847 1.5370989814400671 1.8475142642855709 8.508312225341788 4.146485857665545 1.7528101503849018 4.1805320754647255 1.3291895166039465
leaf_count=25 26 16 21 99 48 19 48 15
internal_value=0 -0.00207059 0.00690495 -0.00465153 2.9283e-05 -0.00652194 -0.00350321 -0.00528051
internal_weight=0 25.8325 5.70728 20.1252 5.68358 14.4417 5.93334 3.1767
internal_count=317 292 62 230 64 166 67 36
is_linear=0
shrinkage=0.01


Tree=41
num_leaves=5
num_cat=0
split_feature=11 11 6 11
split_gain=152.54 5.55939 5.66811 4.03396
threshold=0.84597635293589135 1.0224677790798615 0.14668544807954564 0.4253384539594296
decision_type=2 2 2 2
left_child=3 2 -2 -1
right_child=1 -3 -4 -5
leaf_value=-0.0098386921902835333 0.0076140549572396585 0.02933259788915946 0.026306755518453625 0.0012002852883121996
leaf_weight=42.49017758667469 3.2905594557523754 11.643646761775015 3.4725142419338226 3.4919813722372046
leaf_count=222 15 48 15 17
internal_value=0 0.0250373 0.0174079 -0.00898911
internal_weight=0 18.4067 6.76307 45.9822
internal_count=317 78 30 239
is_linear=0
shrinkage=0.01


Tree=42
num_leaves=9
num_cat=0
split_feature=9 11 12 9 12 31 4 12
split_gain=121.082 12.8255 14.0643 4.4548 1.61676 1.97017 0.37798 0.791216
threshold=1.0000000180025095e-35 0.84597635293589135 1.0558315854776785 -0.36910474571804669 -0.82566650706596345 -1.0000000180025095e-35 1.0000000180025095e-35 1.0000000180025095e-35
decision_type=2 2 2 2 2 2 2 2
left_child=3 2 4 6 5 -2 7 -1
right_child=1 -3 -4 -5 -6 -7 -8 -9
leaf_value=-0.006944245811318645 0.0080128998585433844 -0.0022547626869783839 -0.0031532852964984027 -0.0044353869063699074 0.016790027057561118 0.016573751515753122 -0.013119123583055108 -0.013360024497443931
leaf_weight=4.5472426712512952 6.5149349570274353 6.0924017131328574 4.6054402291774741 8.5293614864349347 24.929632842540741 5.2984957396984083 31.920974344015121 4.539092481136322
leaf_count=15 21 20 15 28 80 17 106 15
internal_value=0 0.0112048 0.0132004 -0.0111364 0.0152653 0.0119484 -0.0125109 -0.0102596
internal_weight=0 47.4409 41.3485 49.5367 36.7431 11.8134 41.0073 9.08634
internal_count=317 153 133 164 118 38 136 30
is_linear=0
shrinkage=0.01


Tree=43
num_leaves=6
num_cat=0
split_feature=12 12 12 9 19
split_gain=118.816 7.53583 6.22913 8.16119 2.51491
threshold=0.58313994646425105 1.0558315854776785 0.25741965739617506 1.0000000180025095e-35 0.38581074071444826
decision_type=2 2 2 2 2
left_child=2 -2 -1 -4 -3
right_child=1 4 3 -5 -6
leaf_value=-0.0098869453692562136 0.011858006282442301 0.030033738184854084 0.010212155299764448 -0.0096981514178706117 0.018705560375365009
leaf_weight=39.27935928106308 4.9202153533697155 8.5617895871400815 3.8559168726205808 4.3004197031259537 3.3759529292583457
leaf_count=202 23 37 18 22 15
internal_value=0 0.0226323 -0.00823723 -0.000219733 0.0269633
internal_weight=0 16.858 47.4357 8.15634 11.9377
internal_count=317 75 242 40 52
is_linear=0
shrinkage=0.01


Tree=44
num_leaves=4
num_cat=0
split_feature=13 13 10
split_gain=99.707 6.10136 8.43521
threshold=1.6615850103377905 0.96345234709072691 -1.0000000180025095e-35
decision_type=2 2 2
left_child=1 -1 -3
right_child=-2 2 -4
leaf_value=-0.0085826746321726113 0.057110762515391621 -0.0082484353279443107 0.022751353577381454
leaf_weight=21.997704848647125 2.6645144224166861 1.8950486332178118 1.5357195958495129
leaf_count=262 19 20 16
internal_value=0 -0.00664069 0.00561188
internal_weight=0 25.4285 3.43077
internal_count=317 298 36
is_linear=0
shrinkage=0.01


Tree=45
num_leaves=10
num_cat=0
split_feature=20 14 13 18 32 19 34 16 19
split_gain=7.06899 5.1458 2.83621 3.43429 4.79779 3.12596 1.73962 2.53153 3.41875
threshold=1.9127209838496597 -0.98622849514295741 0.36045306562785479 0.038214381995533363 -0.46208333684260799 0.58248917450177184 -1.0000000180025095e-35 0.27199381662950078 -0.68286180220440518
decision_type=2 2 2 2 2 2 2 2 2
left_child=1 -1 3 6 -5 -6 7 -3 -9
right_child=-2 2 -4 4 5 -7 -8 8 -10
leaf_value=0.012660692631444266 0.01899009586317282 -0.0082726737288063186 -0.0085071025653869117 0.016255587814691004 0.0091644652511726574 -0.0082872633598405614 -0.0084724338232880347 0.015517240200296148 -0.0035499321380136773
leaf_weight=2.2825389578938546 1.7487943097949017 2.4781771078705876 6.4870882555842391 2.3438160642981529 1.6256558448076237 2.5700278505682945 5.0407584309577906 1.5965126380324455 2.0895330980420024
leaf_count=24 18 29 75 24 18 30 58 17 24
internal_value=0 -0.00149131 -0.0028683 -0.000760643 0.00494067 -0.00137937 -0.00413966 -0.000476431 0.00467182
internal_weight=0 26.5141 24.2316 17.7445 6.5395 4.19568 11.205 6.16422 3.68605
internal_count=317 299 275 200 72 48 128 70 41
is_linear=0
shrinkage=0.01


Tree=46
num_leaves=5
num_cat=0
split_feature=11 11 6 11
split_gain=148.008 5.26248 5.39261 4.00183
threshold=0.84597635293589135 1.0224677790798615 0.14668544807954564 0.4253384539594296
decision_type=2 2 2 2
left_child=3 2 -2 -1
right_child=1 -3 -4 -5
leaf_value=-0.0098154815454034317 0.0074686746169489162 0.028548942500481608 0.025605347428714152 0.0011732861480198864
leaf_weight=42.155808568000793 3.3124153017997768 11.843960240483282 3.5319488346576691 3.4982690811157218
leaf_count=222 15 48 15 17
internal_value=0 0.0244093 0.0170182 -0.00896216
internal_weight=0 18.6883 6.84436 45.6541
internal_count=317 78 30 239
is_linear=0
shrinkage=0.01


Tree=47
num_leaves=8
num_cat=0
split_feature=9 11 12 9 10 4 12
split_gain=118.523 12.461 13.6566 4.38255 2.23913 0.369557 0.7799
threshold=1.0000000180025095e-35 0.84597635293589135 1.0558315854776785 -0.36910474571804669 0.9225245809850573 1.0000000180025095e-35 -1.0000000180025095e-35
decision_type=2 2 2 2 2 2 2
left_child=3 2 4 5 -2 6 -1
right_child=1 -3 -4 -5 -6 -7 -8
leaf_value=-0.0068844202338008099 0.016247510113327354 -0.0022034578581954503 -0.0030883391660790544 -0.004395895164600672 0.0094396516433978336 -0.013016671262693593 -0.013264218397406199
leaf_weight=4.5388442277908325 30.259168386459351 6.0850422382354727 4.6000155806541434 8.519361734390257 6.5212540924549094 31.799521625041962 4.5243322253227216
leaf_count=15 97 20 15 28 21 106 15
internal_value=0 0.0110722 0.0130367 -0.0110457 0.0150685 -0.0124128 -0.0101794
internal_weight=0 47.4655 41.3804 49.3821 36.7804 40.8627 9.06318
internal_count=317 153 133 164 118 136 30
is_linear=0
shrinkage=0.01


Tree=48
num_leaves=6
num_cat=0
split_feature=12 12 13 12 13
split_gain=115.387 7.17937 10.1644 6.19274 6.69997
threshold=0.58313994646425105 1.6212078595917776 -0.82798241143003892 0.25741965739617506 0.15555039716959723
decision_type=2 2 2 2 2
left_child=3 2 -2 -1 -5
right_child=1 -3 -4 4 -6
leaf_value=-0.009863298268611459 0.004237798531299815 0.030803866420626578 0.024390046421110978 -0.0096717957698875309 0.0083665240162527701
leaf_weight=38.973256841301918 4.0796529352664956 6.2040586024522772 6.8222279548645028 3.9004977196454984 4.2476161271333694
leaf_count=202 19 26 30 20 20
internal_value=0 0.0220777 0.0169482 -0.00820732 -0.000213744
internal_weight=0 17.1059 10.9019 47.1214 8.14811
internal_count=317 75 49 242 40
is_linear=0
shrinkage=0.01


Tree=49
num_leaves=4
num_cat=0
split_feature=13 13 10
split_gain=94.0404 6.0429 8.14424
threshold=1.6615850103377905 0.96345234709072691 -1.0000000180025095e-35
decision_type=2 2 2
left_child=1 -1 -3
right_child=-2 2 -4
leaf_value=-0.0085762520788916548 0.054028888099973846 -0.0082396647609405422 0.022092262510107694
leaf_weight=21.811186604201801 2.793366312980651 1.8825926855206492 1.5686012357473362
leaf_count=262 19 20 16
internal_value=0 -0.00662334 0.0055223
internal_weight=0 25.2624 3.45119
internal_count=317 298 36
is_linear=0
shrinkage=0.01


Tree=50
num_leaves=10
num_cat=0
split_feature=9 13 11 20 16 18 27 28 30
split_gain=12.4374 11.0378 11.8125 12.1138 8.04349 10.0895 7.83385 1.1213 1.28095
threshold=1.0000000180025095e-35 0.77903994547829514 1.0224677790798615 1.1572369809101302 -0.38688195953296201 0.038214381995533363 0.75941145285456579 1.0000000180025095e-35 -0.33852441687201934
decision_type=2 2 2 2 2 2 2 2 2
left_child=1 2 3 4 -1 6 -6 8 -2
right_child=7 -3 -4 -5 5 -7 -8 -9 -10
leaf_value=-0.0040868860901945078 -0.0079470699277748996 -0.0084003818866500435 -0.0082670607010285873 0.0421197687722525 -0.0036914668737326327 0.038206134869695922 0.026357388721654527 -0.0085402038167539922 0.0055767768140697121
leaf_weight=2.3125846982002241 1.3331610560417178 3.6467768326401702 2.3446175381541243 1.5172983035445211 2.1425582394003908 1.6494756639003751 1.3711489439010618 9.6735772117972356 1.346201330423354
leaf_count=25 16 42 27 14 24 16 14 114 15
internal_value=0 0.00657172 0.0114472 0.0166595 0.0111801 0.0180877 0.00809944 -0.00695376 -0.000991358
internal_weight=0 14.9845 11.3377 8.99307 7.47577 5.16318 3.51371 12.3529 2.67936
internal_count=307 162 120 93 79 54 38 145 31
is_linear=0
shrinkage=0.01


Tree=51
num_leaves=5
num_cat=0
split_feature=11 11 7 11
split_gain=119.277 10.1286 6.40604 2.00971
threshold=0.66066035548472291 1.0224677790798615 -0.023771806257742136 0.24002245650826112
decision_type=2 2 2 2
left_child=3 2 -2 -1
right_child=1 -3 -4 -5
leaf_value=-0.0097918874810766863 0.021002930080021624 0.027672683496256748 0.0027347984574843647 -0.0019864873265072235
leaf_weight=39.756071358919144 4.0744565576314926 10.531503051519392 3.7549457550048855 3.8071863800287238
leaf_count=211 18 42 17 19
internal_value=0 0.0212293 0.012378 -0.00912426
internal_weight=0 18.3609 7.8294 43.5633
internal_count=307 77 35 230
is_linear=0
shrinkage=0.01


Tree=52
num_leaves=8
num_cat=0
split_feature=9 11 12 12 11 18 12
split_gain=121.478 11.5597 11.2078 1.68867 2.57952 3.84949 0.939313
threshold=1.0000000180025095e-35 0.66066035548472291 1.0558315854776785 0.25741965739617506 0.66066035548472291 -0.28392113167208538 -1.1964050474686514
decision_type=2 2 2 2 2 2 2
left_child=3 2 6 4 5 -1 -2
right_child=1 -3 -4 -5 -6 -7 -8
leaf_value=-0.013393451970493719 0.011294649130296845 -0.00057539469279044796 -0.00096142165999823939 -0.013275123155049891 -0.012997078755230079 -0.0021627949569266876 0.016375981838856704
leaf_weight=4.8445835709571829 5.6035879850387564 6.7215258181095114 4.6016054153442374 24.264663338661194 10.989114195108412 8.535447835922243 28.096248418092728
leaf_count=16 18 22 15 81 37 28 90
internal_value=0 0.0114461 0.0135668 -0.011336 -0.00936151 -0.0063011 0.0155639
internal_weight=0 45.023 38.3014 48.6338 24.3691 13.38 33.6998
internal_count=307 145 123 162 81 44 108
is_linear=0
shrinkage=0.01


Tree=53
num_leaves=6
num_cat=0
split_feature=12 9 12 13 9
split_gain=119.769 11.2981 5.34756 7.80498 1.83583
threshold=0.58313994646425105 0.1466144654509868 0.25741965739617506 0.15555039716959723 -1.0350334358683522
decision_type=2 2 2 2 2
left_child=2 4 -1 -4 -2
right_child=1 -3 3 -5 -6
leaf_value=-0.0098432358752319031 0.020039111975168181 0.0071283750025558134 -0.0097140968445557658 0.008881876613984669 0.029111742009181377
leaf_weight=35.467617556452751 4.1854703128337869 3.9500241726636878 4.862069219350813 4.1148737221956253 9.9811162799596786
leaf_count=185 18 18 25 19 42
internal_value=0 0.0223714 -0.00809835 -0.00113266 0.0265463
internal_weight=0 18.1166 44.4446 8.97694 14.1666
internal_count=307 78 229 44 60
is_linear=0
shrinkage=0.01


Tree=54
num_leaves=9
num_cat=0
split_feature=9 11 34 34 0 34 11 14
split_gain=14.0197 7.96661 6.60711 15.5696 4.0464 1.93005 0.81586 1.78781
threshold=-0.36910474571804669 0.66066035548472291 -0.56454624873651493 0.29782663531271664 43.500000000000007 0.42982248491208902 -0.95423619373260249 -0.040211660748458861
decision_type=2 2 2 2 2 2 2 2
left_child=1 2 -1 -4 -5 -3 7 -2
right_child=6 5 3 4 -6 -7 -8 -9
leaf_value=-0.00045526918779374454 -0.008244476699930706 -0.0083155307020658115 0.03924237587919021 -0.0034915763129682907 0.017952152830484586 0.0059633257669591891 -0.0085290887457501689 0.0063690969176462969
leaf_weight=2.4921225383877745 2.1546302512288098 2.9414231255650511 2.2233096286654499 2.0547671839594845 1.4371904134750364 1.3025873675942419 11.194684155285357 1.2713227868080128
leaf_count=28 25 35 18 23 14 14 136 14
internal_value=0 0.00720661 0.0129462 0.0188299 0.00532172 -0.00379816 -0.00720264 -0.00266413
internal_weight=0 12.4514 8.20739 5.71527 3.49196 4.24401 14.6206 3.42595
internal_count=307 132 83 55 37 49 175 39
is_linear=0
shrinkage=0.01


Tree=55
num_leaves=4
num_cat=0
split_feature=10 9 14
split_gain=82.4665 20.0786 3.21971
threshold=1.1365989432159262 0.1466144654509868 -0.016023390383355634
decision_type=2 2 2
left_child=-1 2 -2
right_child=1 -3 -4
leaf_value=-0.008586414612751397 0.052967916131640341 0.0032078474550624957 0.031707068739248022
leaf_weight=21.514381773769859 2.53168024122715 1.6122419014573095 1.6724403798580159
leaf_count=255 21 16 15
internal_value=0 0.0336992 0.0450997
internal_weight=0 5.81636 4.20412
internal_count=307 52 36
is_linear=0
shrinkage=0.01


Tree=56
num_leaves=5
num_cat=0
split_feature=11 11 25 11
split_gain=115.957 9.63558 5.2102 1.99953
threshold=0.66066035548472291 1.0224677790798615 0.37305989191266409 0.24002245650826112
decision_type=2 2 2 2
left_child=3 2 -2 -1
right_child=1 -3 -4 -5
leaf_value=-0.0097683056499298683 0.0048451478411610941 0.026953902982768365 0.021442299080399067 -0.0019757610855458563
leaf_weight=39.426936477422714 4.5109810233116177 10.699393555521963 3.391694188117981 3.8030708879232398
leaf_count=211 20 42 15 19
internal_value=0 0.0207288 0.0121213 -0.0090974
internal_weight=0 18.6021 7.90268 43.23
internal_count=307 77 35 230
is_linear=0
shrinkage=0.01


Tree=57
num_leaves=13
num_cat=0
split_feature=11 12 13 13 17 17 8 14 20 18 20 26
split_gain=27.7894 37.2186 10.7444 7.96019 5.10833 5.10141 2.70851 2.68493 1.10488 1.07756 0.703509 0.157918
threshold=0.4253384539594296 0.58313994646425105 0.96345234709072691 -0.82798241143003892 -0.80943450835327624 -1.1438161796572779 0.09514916926163873 -0.79070928090085502 0.39959248374118289 -0.78878450970230463 -0.66965583039751186 -0.63190087045635523
decision_type=2 2 2 2 2 2 2 2 2 2 2 2
left_child=1 2 5 -3 -2 -1 -4 -7 -6 -9 -11 -12
right_child=4 3 6 -5 8 7 -8 9 -10 10 11 -13
leaf_value=0.00041692288215946089 -5.0828213243961973e-05 0.00066827360153378149 -0.0070591268021278552 -0.012524058713605684 -0.012492795588900468 0.0044739158660902813 0.0035604856218437275 0.0090194230546069929 -0.0065042383717550372 0.01007060899558849 0.012726712399115464 0.016127488296084739
leaf_weight=4.6155397593975058 5.1410364210605648 6.7232760488986996 4.5503558516502363 13.775104433298109 16.640100091695789 4.6218987405300096 4.9208052456378937 6.5160126984119406 4.4917701780796042 4.6598080694675472 5.2865200936794308 11.553195804357534
leaf_count=15 17 22 15 46 56 15 16 21 15 15 17 37
internal_value=0 0.00302724 0.00795888 -0.00818167 -0.00909134 0.0103757 -0.0014994 0.011766 -0.0112618 0.0129411 0.0140828 0.0151303
internal_weight=0 67.2225 46.7241 20.4984 26.2729 37.253 9.47116 32.6374 21.1319 28.0155 21.4995 16.8397
internal_count=307 219 151 68 88 120 31 105 71 90 69 54
is_linear=0
shrinkage=0.01


Tree=58
num_leaves=11
num_cat=0
split_feature=9 11 13 11 13 3 13 22 17 18
split_gain=31.9926 31.2575 16.496 6.42233 5.36218 3.88636 1.96861 0.839446 0.737396 0.548926
threshold=-0.21138479278771125 0.84597635293589135 1.4157018081878812 -0.17767391869913463 0.15555039716959723 1.0000000180025095e-35 0.15555039716959723 0.21147934234742857 0.80983366679575519 0.73737052232667322
decision_type=2 2 2 2 2 2 2 2 2 2
left_child=1 2 3 6 -5 -2 -1 -3 9 -7
right_child=5 7 -4 4 -6 8 -8 -9 -10 -11
leaf_value=0.027262413986345799 0.0026416948324345557 -0.0097436101782097089 -0.0067115202264425066 0.017553277730679495 0.0010097134178532719 -0.0097783736668850627 0.018016531911479554 -0.0029366751038787638 -0.0045085784536469447 -0.0054778380920757763
leaf_weight=5.1800256073474902 3.8658309280872372 6.3705395460128766 3.2331003695726386 4.5687350034713763 3.5304168909788132 16.295288056135185 6.2324345856904984 2.938209667801857 5.6430665999650946 4.6612286418676367
leaf_count=21 19 33 16 20 17 86 27 15 29 24
internal_value=0 0.0076967 0.0140131 0.0174812 0.0104537 -0.00660194 0.0223574 -0.00767567 -0.00796655 -0.00886095
internal_weight=0 32.0535 22.7447 19.5116 8.09915 30.4654 11.4125 9.30875 26.5996 20.9565
internal_count=307 149 101 85 37 158 48 48 139 110
is_linear=0
shrinkage=0.01


Tree=59
num_leaves=4
num_cat=0
split_feature=13 13 21
split_gain=78.4022 4.8414 5.06983
threshold=1.4157018081878812 0.96345234709072691 -0.02238891987857267
decision_type=2 2 2
left_child=1 -1 -3
right_child=-2 2 -4
leaf_value=-0.0085659668376968767 0.045014049702200173 -0.0080468619064948902 0.018238698614860133
leaf_weight=20.962572053074844 3.2627086490392676 1.3827698901295664 1.430615335702895
leaf_count=255 22 15 15
internal_value=0 -0.00690498 0.00522989
internal_weight=0 23.776 2.81339
internal_count=307 285 30
is_linear=0
shrinkage=0.01


Tree=60
num_leaves=4
num_cat=0
split_feature=10 9 22
split_gain=79.69 18.5802 3.86271
threshold=1.1365989432159262 0.1466144654509868 -0.031132159848190198
decision_type=2 2 2
left_child=-1 2 -2
right_child=1 -3 -4
leaf_value=-0.0085805027522128704 0.053441335250815784 0.0031797114587486727 0.031783893444602411
leaf_weight=21.348822571337227 2.1887802481651306 1.6158250570297239 2.1598051935434333
leaf_count=255 17 16 19
internal_value=0 0.0326177 0.043282
internal_weight=0 5.96441 4.34859
internal_count=307 52 36
is_linear=0
shrinkage=0.01


Tree=61
num_leaves=5
num_cat=0
split_feature=11 11 7 11
split_gain=112.774 9.18859 6.03101 1.98922
threshold=0.66066035548472291 1.0224677790798615 -0.023771806257742136 0.24002245650826112
decision_type=2 2 2 2
left_child=3 2 -2 -1
right_child=1 -3 -4 -5
leaf_value=-0.0097450031561656502 0.020105858897467677 0.026274124949108475 0.0025358775989741899 -0.0019660071926855998
leaf_weight=39.103135108947754 4.1777866780757904 10.860975354909895 3.7978521436452892 3.7993803620338431
leaf_count=211 18 42 17 19
internal_value=0 0.0202491 0.0118696 -0.00907084
internal_weight=0 18.8366 7.97564 42.9025
internal_count=307 77 35 230
is_linear=0
shrinkage=0.01


Tree=62
num_leaves=8
num_cat=0
split_feature=9 11 12 12 15 12 11
split_gain=117.081 10.8581 10.8055 1.61428 2.75393 0.909982 0.779922
threshold=1.0000000180025095e-35 0.66066035548472291 1.0558315854776785 0.25741965739617506 0.55416450062815292 -1.1964050474686514 0.24002245650826112
decision_type=2 2 2 2 2 2 2
left_child=3 2 5 4 6 -2 -1
right_child=1 -3 -4 -5 -6 -7 -8
leaf_value=-0.0083529959550826365 0.011029664201319263 -0.00044991794888867519 -0.00099093444910863023 -0.013088144506898823 -0.0030238885756973932 0.01602917943581026 -0.012950447818625555
leaf_weight=7.5817077159881654 5.6089532375335684 6.7029477059841147 4.6033066213130942 24.076132535934448 5.7191918492317191 28.110812425613403 10.952574431896208
leaf_count=25 18 22 15 81 19 90 37
internal_value=0 0.011218 0.0132697 -0.0111813 -0.00924482 0.0152299 -0.0111242
internal_weight=0 45.026 38.3231 48.3296 24.2535 33.7198 18.5343
internal_count=307 145 123 162 81 108 62
is_linear=0
shrinkage=0.01


Tree=63
num_leaves=6
num_cat=0
split_feature=12 9 12 13 10
split_gain=114.167 10.1894 5.30788 7.56834 2.43318
threshold=0.58313994646425105 0.1466144654509868 0.25741965739617506 0.15555039716959723 -0.94298057559822845
decision_type=2 2 2 2 2
left_child=2 4 -1 -4 -2
right_child=1 -3 3 -5 -6
leaf_value=-0.0098071895680343617 0.01728973291908022 0.0070226299090291131 -0.0096703830576007239 0.0086564651672468244 0.027842976224741588
leaf_weight=35.021650537848473 3.5201396644115457 3.9686806201934806 4.7928266525268537 4.1530480235815048 11.033084705471992
leaf_count=185 15 18 25 19 45
internal_value=0 0.0215128 -0.0080514 -0.00110589 0.0253925
internal_weight=0 18.5219 43.9675 8.94587 14.5532
internal_count=307 78 229 44 60
is_linear=0
shrinkage=0.01


Tree=64
num_leaves=4
num_cat=0
split_feature=13 13 21
split_gain=74.7778 4.79798 4.93151
threshold=1.4157018081878812 0.96345234709072691 -0.02238891987857267
decision_type=2 2 2
left_child=1 -1 -3
right_child=-2 2 -4
leaf_value=-0.0085595458771521356 0.04305708110969346 -0.0080399209244535214 0.0178177623273073
leaf_weight=20.784110113978393 3.3821413591504088 1.3759955614805224 1.4533213898539532
leaf_count=255 22 15 15
internal_value=0 -0.00688867 0.00514738
internal_weight=0 23.6134 2.82932
internal_count=307 285 30
is_linear=0
shrinkage=0.01


Tree=65
num_leaves=4
num_cat=0
split_feature=10 10 1
split_gain=76.7345 12.3898 8.21831
threshold=1.1365989432159262 1.6615908315440093 1.0000000180025095e-35
decision_type=2 2 2
left_child=-1 2 -2
right_child=1 -3 -4
leaf_value=-0.0085740789429695624 0.0025061371022877207 0.048255863118964931 0.033114224995924195
leaf_weight=21.166097410023216 1.7159081026911727 2.5628752559423447 1.8508384227752686
leaf_count=255 17 19 16
internal_value=0 0.0314675 0.0187656
internal_weight=0 6.12962 3.56675
internal_count=307 52 33
is_linear=0
shrinkage=0.01


Tree=66
num_leaves=5
num_cat=0
split_feature=11 11 7 11
split_gain=109.81 8.79538 5.79886 1.97712
threshold=0.66066035548472291 1.0224677790798615 -0.023771806257742136 0.24002245650826112
decision_type=2 2 2 2
left_child=3 2 -2 -1
right_child=1 -3 -4 -5
leaf_value=-0.0097222846440960537 0.019636194241527915 0.025653337544698986 0.0024735796914793365 -0.0019614815666084816
leaf_weight=38.777833983302116 4.2332364171743393 11.010468900203703 3.8112479150295275 3.7971791923046103
leaf_count=211 18 42 17 19
internal_value=0 0.0198061 0.0116323 -0.00904496
internal_weight=0 19.055 8.04448 42.575
internal_count=307 77 35 230
is_linear=0
shrinkage=0.01


Tree=67
num_leaves=8
num_cat=0
split_feature=9 11 12 12 15 12 11
split_gain=114.559 10.5478 10.5674 1.57824 2.72027 0.898234 0.764189
threshold=1.0000000180025095e-35 0.66066035548472291 1.0558315854776785 0.25741965739617506 0.55416450062815292 -1.1964050474686514 0.24002245650826112
decision_type=2 2 2 2 2 2 2
left_child=3 2 5 4 6 -2 -1
right_child=1 -3 -4 -5 -6 -7 -8
leaf_value=-0.0082994888387804208 0.010875666113910316 -0.0004186122754399327 -0.00099427065735793307 -0.012983842478816666 -0.0029879771738433114 0.015839454978552266 -0.012861124476467652
leaf_weight=7.5691744387149873 5.6113823354244223 6.6977309584617606 4.6034180521965018 23.962428331375122 5.7110405266284934 28.108207523822784 10.904554367065428
leaf_count=25 18 22 15 81 19 90 37
internal_value=0 0.0110855 0.013107 -0.0110922 -0.0091743 0.0150455 -0.0110465
internal_weight=0 45.0207 38.323 48.1472 24.1848 33.7196 18.4737
internal_count=307 145 123 162 81 108 62
is_linear=0
shrinkage=0.01


Tree=68
num_leaves=6
num_cat=0
split_feature=12 9 12 13 10
split_gain=110.845 9.6384 5.27531 7.41574 2.27212
threshold=0.58313994646425105 0.1466144654509868 0.25741965739617506 0.15555039716959723 -0.94298057559822845
decision_type=2 2 2 2 2
left_child=2 4 -1 -4 -2
right_child=1 -3 3 -5 -6
leaf_value=-0.0097837594387645017 0.016920702968584663 0.0069223168098063526 -0.0096443044166164022 0.0085012942421385691 0.027083142883197905
leaf_weight=34.731977328658104 3.5592432171106347 3.9867744743823996 4.7519612908363325 4.1802722215652466 11.221018016338348
leaf_count=185 15 18 25 19 45
internal_value=0 0.0210059 -0.00802136 -0.00109647 0.0247349
internal_weight=0 18.767 43.6642 8.93223 14.7803
internal_count=307 78 229 44 60
is_linear=0
shrinkage=0.01


Tree=69
num_leaves=4
num_cat=0
split_feature=13 13 21
split_gain=71.4758 4.75534 4.79244
threshold=1.4157018081878812 0.96345234709072691 -0.02238891987857267
decision_type=2 2 2
left_child=1 -1 -3
right_child=-2 2 -4
leaf_value=-0.0085532586849980888 0.041280100473958532 -0.0080319262299776394 0.017397757574698903
leaf_weight=20.604733720421798 3.4977669268846503 1.3682294338941576 1.4766147136688221
leaf_count=255 22 15 15
internal_value=0 -0.00687232 0.00506713
internal_weight=0 23.4496 2.84484
internal_count=307 285 30
is_linear=0
shrinkage=0.01


Tree=70
num_leaves=4
num_cat=0
split_feature=10 10 9
split_gain=73.9723 11.214 7.94358
threshold=1.1365989432159262 1.6615908315440093 -0.36910474571804669
decision_type=2 2 2
left_child=-1 2 -2
right_child=1 -3 -4
leaf_value=-0.0085676939173775918 0.032236454340655585 0.045996373214298565 0.0023741846660165996
leaf_weight=20.983668260276321 1.8901355639100077 2.666913777589798 1.734399989247321
leaf_count=255 16 19 17
internal_value=0 0.0303949 0.0183097
internal_weight=0 6.29145 3.62454
internal_count=307 52 33
is_linear=0
shrinkage=0.01


Tree=71
num_leaves=5
num_cat=0
split_feature=11 11 7 11
split_gain=106.954 8.435 5.58314 1.96564
threshold=0.66066035548472291 1.0224677790798615 -0.023771806257742136 0.24002245650826112
decision_type=2 2 2 2
left_child=3 2 -2 -1
right_child=1 -3 -4 -5
leaf_value=-0.0096998389575863771 0.019186599518470921 0.025063414930389927 0.0024091566799022716 -0.0019557465720150928
leaf_weight=38.451967433094978 4.2871712148189545 11.154075443744658 3.8250985741615313 3.7945399880409232
leaf_count=211 18 42 17 19
internal_value=0 0.0193807 0.0114002 -0.00901923
internal_weight=0 19.2663 8.11227 42.2465
internal_count=307 77 35 230
is_linear=0
shrinkage=0.01


Tree=72
num_leaves=11
num_cat=0
split_feature=9 9 5 7 7 12 15 14 9 33
split_gain=112.149 7.49652 5.23325 2.72463 4.02964 1.54341 2.68877 0.523165 1.04145 0.397851
threshold=1.0000000180025095e-35 0.74369714440154289 0.67899611935877935 1.0000000180025095e-35 -0.73165460619342093 0.25741965739617506 0.55416450062815292 -0.3383626218175288 -0.54434913786286387 -0.59579781243299101
decision_type=2 2 2 2 2 2 2 2 2 2
left_child=5 2 3 4 -2 6 7 8 -1 -3
right_child=1 9 -4 -5 -6 -7 -8 -9 -10 -11
leaf_value=-0.012605225068623351 0.012482231151101189 0.012139206524523674 -0.0017508572049641667 0.015941606259137243 0.00020912627923900436 -0.012883584454789867 -0.0029529664074070061 -0.012983746867036064 -0.0057224342341017313 0.015789304871004696
leaf_weight=4.6915553212165859 5.6000964045524597 6.8299784362316158 5.5090709328651419 4.6775885820388785 5.2446234822273272 23.845745712518692 5.7028749883174887 8.5883520543575287 5.1331206560134897 17.14403361082077
leaf_count=16 18 22 18 15 17 81 19 29 17 55
internal_value=0 0.0109591 0.00653493 0.00950395 0.00662092 -0.0110064 -0.00910683 -0.0109726 -0.00910698 0.0147977
internal_weight=0 45.0054 21.0314 15.5223 10.8447 47.9616 24.1159 18.413 9.82468 23.974
internal_count=307 145 68 50 35 162 81 62 33 77
is_linear=0
shrinkage=0.01


Tree=73
num_leaves=6
num_cat=0
split_feature=12 13 12 13 10
split_gain=107.678 7.8895 5.24123 7.26537 2.65167
threshold=0.58313994646425105 -0.82798241143003892 0.25741965739617506 0.15555039716959723 -0.94298057559822845
decision_type=2 2 2 2 2
left_child=2 -2 -1 -4 -3
right_child=1 4 3 -5 -6
leaf_value=-0.0097606621983148505 0.010772716602467569 0.01679908967205904 -0.0096190676799420855 0.0083465827612866882 0.027867567425967452
leaf_weight=34.442047446966171 6.0112746357917812 3.5719916522502908 4.7115233242511732 4.2075332850217819 9.4197037816047633
leaf_count=185 26 15 25 19 37
internal_value=0 0.0205238 -0.00799175 -0.00108881 0.0249388
internal_weight=0 19.003 43.3611 8.91906 12.9917
internal_count=307 78 229 44 52
is_linear=0
shrinkage=0.01


Tree=74
num_leaves=4
num_cat=0
split_feature=13 13 0
split_gain=68.4312 4.71297 4.92797
threshold=1.4157018081878812 0.96345234709072691 35.500000000000007
decision_type=2 2 2
left_child=1 -1 -3
right_child=-2 2 -4
leaf_value=-0.0085470103737101313 0.039645829377220707 -0.0080635553228120965 0.017648427556967505
leaf_weight=20.425527594983585 3.6107280105352393 1.3978979289531701 1.4623791351914404
leaf_count=255 22 15 15
internal_value=0 -0.00685593 0.00498781
internal_weight=0 23.2858 2.86028
internal_count=307 285 30
is_linear=0
shrinkage=0.01


Tree=75
num_leaves=4
num_cat=0
split_feature=10 10 8
split_gain=79.4689 11.3042 1.84982
threshold=1.1365989432159262 1.3404792881977061 -0.12517076416125655
decision_type=2 2 2
left_child=-1 2 -2
right_child=1 -3 -4
leaf_value=-0.0085660062629641671 0.025125520830184916 0.045073043817020556 0.0091534551662194527
leaf_weight=22.476434804499153 1.709319092333317 3.0814521685242653 1.6114581748843182
leaf_count=275 15 22 15
internal_value=0 0.0312382 0.0177739
internal_weight=0 6.40223 3.32078
internal_count=327 52 30
is_linear=0
shrinkage=0.01


Tree=76
num_leaves=5
num_cat=0
split_feature=11 11 19 33
split_gain=126.976 10.3136 9.87813 4.04563
threshold=0.4253384539594296 1.0224677790798615 0.18662652485920991 -0.13572336144426167
decision_type=2 2 2 2
left_child=-1 2 3 -2
right_child=1 -3 -4 -5
leaf_value=-0.009685440571854163 0.010629920337354316 0.024696566800750847 -0.0019667280665533436 0.025358352170352868
leaf_weight=40.927783831954002 4.1745139807462692 13.708286285400389 3.5876956582069397 3.8191098719835299
leaf_count=226 18 51 16 16
internal_value=0 0.0187907 0.0116811 0.0178428
internal_weight=0 25.2896 11.5813 7.99362
internal_count=327 101 50 34
is_linear=0
shrinkage=0.01


Tree=77
num_leaves=10
num_cat=0
split_feature=9 12 11 5 17 0 17 15 12
split_gain=106.448 11.1836 11.525 3.38531 1.07955 0.740365 0.423891 0.294134 0.934179
threshold=1.0000000180025095e-35 1.0558315854776785 0.66066035548472291 0.91903710418115792 1.4359643173701671 22.500000000000004 -1.0381335378030767 0.61828032474352701 0.42425200057738466
decision_type=2 2 2 2 2 2 2 2 2
left_child=3 2 4 5 6 -1 -2 -7 -9
right_child=1 -3 -4 -5 -6 7 -8 8 -10
leaf_value=-0.0075661770164914188 0.011426726727289673 -0.0037343481567022924 0.00023889033295546855 -0.0038913528271472698 0.0093191584581523088 -0.0125815574851034 0.015545373631491739 -0.0062239479026287041 -0.012741396316668071
leaf_weight=5.5933586061000815 4.6781084239482835 4.8991319835185996 7.0021802484989157 7.4411323368549338 4.6742803752422324 26.5270876288414 27.775174856185917 4.4272637069225294 5.8834000825881958
leaf_count=19 15 16 23 25 15 90 89 15 20
internal_value=0 0.0104894 0.0120822 -0.0102499 0.0142991 -0.0113473 0.0149855 -0.0118968 -0.0100347
internal_weight=0 49.0289 44.1297 49.8722 37.1276 42.4311 32.4533 36.8378 10.3107
internal_count=327 158 142 169 119 144 104 125 35
is_linear=0
shrinkage=0.01


Tree=78
num_leaves=6
num_cat=0
split_feature=12 12 13 10 30
split_gain=90.4901 10.3312 12.521 3.32233 1.91345
threshold=0.83338846123606547 0.25741965739617506 -0.41817707451352387 -0.94298057559822845 -0.13575784935637641
decision_type=2 2 2 2 2
left_child=1 -1 -3 -2 -4
right_child=3 2 4 -5 -6
leaf_value=-0.0097431809620478725 0.014791235895858231 -0.0097208890549377314 0.0042277545269357756 0.025364090061870494 0.015173848468116232
leaf_weight=38.43673437833786 5.4279502481222144 6.1270218044519424 3.3418165594339371 8.6859870254993421 3.4382181465625745
leaf_count=208 23 32 15 34 15
internal_value=0 -0.007146 0.000557481 0.0213998 0.00992227
internal_weight=0 51.3438 12.9071 14.1139 6.78003
internal_count=327 270 62 57 30
is_linear=0
shrinkage=0.01


Tree=79
num_leaves=8
num_cat=0
split_feature=9 11 1 2 27 29 21
split_gain=12.536 12.2768 7.07332 9.84463 6.31687 0.626601 0.588056
threshold=-0.21138479278771125 0.66066035548472291 1.0000000180025095e-35 9.5000000000000018 -0.73545720493999778 1.3524935783776981 0.66649899906925236
decision_type=2 2 2 2 2 2 2
left_child=1 2 3 -1 -4 -2 -3
right_child=5 6 4 -5 -6 -7 -8
leaf_value=0.00423760711333988 -0.0085141777012181993 -0.0083817686084075166 0.015869004910998682 0.032650685700967019 -0.0082229527118892632 -0.00086733873439290992 -1.0981365351591518e-05
leaf_weight=2.2292045503854769 12.341857902705668 4.0794322192668906 1.9496893361210821 2.8171367049217224 2.3182861879467964 1.3478222042322148 1.2047483846545217
leaf_count=23 156 50 17 23 28 16 14
internal_value=0 0.00548899 0.0123908 0.0203621 0.00272321 -0.00780359 -0.00658503
internal_weight=0 14.5985 9.31432 5.04634 4.26798 13.6897 5.28418
internal_count=327 155 91 46 45 172 64
is_linear=0
shrinkage=0.01


Tree=80
num_leaves=10
num_cat=0
split_feature=17 14 27 27 31 7 22 21 14
split_gain=12.2987 4.24869 9.3189 2.37326 4.08084 2.9243 3.79594 4.34439 0.492483
threshold=-1.2908262583901251 -0.6763563149555063 -0.4105845331092644 -0.26745881055446574 -1.0000000180025095e-35 -0.79148346786104773 0.46215504892682596 0.24759904183501794 -0.79493590116972379
decision_type=2 2 2 2 2 2 2 2 2
left_child=-1 2 -2 -3 5 -5 7 -7 -4
right_child=1 3 8 4 -6 6 -8 -9 -10
leaf_value=0.020582483637959049 0.018536400758098592 -0.0085017557882395966 -0.0082421690026388099 -0.0080875286219683519 -0.0084325847205113172 0.018277187170488311 -0.0079206606721984336 -0.0019411049219968718 0
leaf_weight=2.6588147729635265 2.858118437230587 7.5320035591721615 2.2919149771332745 1.6684166714549125 4.8599497675895522 2.8950003981590271 1.2993143200874326 1.5834339037537573 1.2013033851981223
leaf_count=25 27 91 27 20 59 29 16 19 14
internal_value=0 -0.00179561 0.00526104 -0.00408754 -0.00132186 0.00327774 0.00668666 0.0110757 -0.00556792
internal_weight=0 26.1895 6.35134 19.8381 12.3061 7.44617 5.77775 4.47843 3.49322
internal_count=327 302 68 234 143 84 64 48 41
is_linear=0
shrinkage=0.01


Tree=81
num_leaves=5
num_cat=0
split_feature=11 11 19 33
split_gain=123.734 9.94161 9.54326 3.84651
threshold=0.4253384539594296 1.0224677790798615 0.18662652485920991 -0.13572336144426167
decision_type=2 2 2 2
left_child=-1 2 3 -2
right_child=1 -3 -4 -5
leaf_value=-0.0096638380446799777 0.010423117711970102 0.024166077631673739 -0.0019800025293232417 0.024710271389149878
leaf_weight=40.584743678569794 4.2072862535715094 13.866731256246565 3.5910036861896506 3.8791868835687664
leaf_count=226 18 51 16 16
internal_value=0 0.0184053 0.011448 0.017448
internal_weight=0 25.5442 11.6775 8.08647
internal_count=327 101 50 34
is_linear=0
shrinkage=0.01


Tree=82
num_leaves=10
num_cat=0
split_feature=9 11 9 14 5 7 0 32 0
split_gain=104.176 10.1162 4.57808 4.53135 3.34398 0.748508 0.722516 0.432779 0.300486
threshold=1.0000000180025095e-35 0.84597635293589135 0.29682394443225874 0.079546335592874065 0.91903710418115792 -0.86375327950045844 39.500000000000007 1.418553404698649 48.500000000000007
decision_type=2 2 2 2 2 2 2 2 2
left_child=4 2 3 -2 5 -1 -4 -7 -8
right_child=1 -3 6 -5 -6 7 8 -9 -10
leaf_value=-0.0082525296346581262 0.012133408658248393 -0.0024041683418696233 0.01549267911626717 0.00068778367292864225 -0.0038437890313940543 -0.012480535263350195 0.0092220960479205954 -0.0085732550921880073 0.013677997986288578
leaf_weight=8.2833207547664625 8.0870698988437635 5.4296124577522269 19.632525086402897 6.1960799992084494 7.4272104501724234 29.276978254318237 4.6599464416503888 4.6968076527118674 4.988628476858139
leaf_count=28 26 18 63 20 25 100 15 16 16
internal_value=0 0.0103712 0.0119758 0.00722286 -0.0101685 -0.0112625 0.0142609 -0.0119684 0.0116361
internal_weight=0 48.9939 43.5642 14.2831 49.6843 42.2571 29.2811 33.9738 9.64857
internal_count=327 158 140 46 169 144 94 116 31
is_linear=0
shrinkage=0.01


Tree=83
num_leaves=11
num_cat=0
split_feature=9 11 10 13 11 10 24 11 23 24
split_gain=18.7332 27.1026 16.2966 8.50664 5.97539 2.49734 5.54186 1.62119 0.988043 0.959179
threshold=-0.21138479278771125 0.84597635293589135 0.9225245809850573 1.1390832057692335 -1.0000000180025095e-35 -0.46725977064074214 0.758535078273887 -0.54242286606333912 1.1665967275908304 0.9825056730793148
decision_type=2 2 2 2 2 2 2 2 2 2
left_child=1 2 3 4 -1 6 7 -2 -7 -3
right_child=5 9 -4 -5 -6 8 -8 -9 -10 -11
leaf_value=0.026122029067865746 -0.00084406467147375296 -0.0097212341268543487 -0.004366941095124934 0.0025465075982385376 0.011883998971691748 -0.0096620637360826118 0.0084588836421597025 -0.0096492045896111305 -0.003119911616146661 -0.0027174824195815113
leaf_weight=6.8613223284482974 3.3247412145137778 8.6500600129365903 5.2245740890502921 3.8219547867774954 5.7065116614103353 16.34380012750626 3.1514129042625418 6.3124744296073905 3.0372592061758033 2.8656788617372504
leaf_count=26 17 46 25 18 25 90 15 34 16 15
internal_value=0 0.00430305 0.0109061 0.0158036 0.0197695 -0.00639953 -0.00289446 -0.00668317 -0.00867322 -0.00804087
internal_weight=0 33.1301 21.6144 16.3898 12.5678 32.1697 12.7886 9.63722 19.3811 11.5157
internal_count=327 155 94 69 51 172 66 51 106 61
is_linear=0
shrinkage=0.01


Tree=84
num_leaves=8
num_cat=0
split_feature=9 11 12 1 30 17 19
split_gain=12.3118 11.891 22.3905 7.92951 1.95244 0.68404 0.588963
threshold=-0.21138479278771125 0.66066035548472291 0.42425200057738466 1.0000000180025095e-35 0.64151399278692134 1.6452957573597675 0.62710145747936863
decision_type=2 2 2 2 2 2 2
left_child=1 2 3 -1 -4 -2 -3
right_child=5 6 4 -5 -6 -7 -8
leaf_value=0.036912649045144803 -0.0085076289355423291 -0.0083743594777223873 -0.0083587548402187847 0.010473404326076406 0.005858418653966373 -0.00032239684627044074 0
leaf_weight=2.9753415659070033 12.30387222021818 4.0463068410754195 3.1530837863683701 2.0001697093248367 1.30012521892786 1.2566617280244816 1.200521685183048
leaf_count=22 157 50 37 19 13 15 14
internal_value=0 0.00539885 0.0121094 0.0265934 -0.00407802 -0.00778981 -0.00656627
internal_weight=0 14.6755 9.42872 4.97551 4.45321 13.5605 5.24683
internal_count=327 155 91 41 50 172 64
is_linear=0
shrinkage=0.01


Tree=85
num_leaves=10
num_cat=0
split_feature=17 9 15 18 17 27 4 18 19
split_gain=11.892 4.08849 6.07518 9.30941 2.69028 2.50988 1.36137 0.680101 0.567853
threshold=-1.2908262583901251 1.0000000180025095e-35 -0.26306181108988369 0.038214381995533363 1.6452957573597675 0.75941145285456579 2.5000000000000004 0.84736438693846217 0.60836289538213884
decision_type=2 2 2 2 2 2 2 2 2
left_child=-1 2 3 6 7 8 -2 -3 -4
right_child=1 4 5 -5 -6 -7 -8 -9 -10
leaf_value=0.020055241669480809 -0.0081308192382814025 -0.0084994876707980612 -0.0084428468325064131 0.022654757974425482 0.0081477783215672533 0.0057867149442189219 0.0048185932633005007 -0.00021732586702022236 -0.00050265543627126571
leaf_weight=2.7059514820575741 1.7263185605406788 9.6681474298238737 4.8740953654050809 2.7934490218758583 1.1321841031312931 2.0034075751900673 1.4055054187774658 1.245974376797675 1.277885816991329
leaf_count=25 20 121 58 26 13 21 14 15 14
internal_value=0 -0.00178091 0.00184916 0.00953734 -0.00605546 -0.00369981 -0.00217782 -0.00760489 -0.00689148
internal_weight=0 26.127 14.0807 5.92527 12.0463 8.15539 3.13182 10.9141 6.15198
internal_count=327 302 153 60 149 93 34 136 72
is_linear=0
shrinkage=0.01


Tree=86
num_leaves=5
num_cat=0
split_feature=11 11 19 8
split_gain=120.598 9.56504 9.21777 3.1765
threshold=0.4253384539594296 1.0224677790798615 0.18662652485920991 -0.11834863226784173
decision_type=2 2 2 2
left_child=-1 2 3 -2
right_child=1 -3 -4 -5
leaf_value=-0.0096424619899678817 0.0093366686349240988 0.023647644188750018 -0.0019859619396130949 0.022479074078409322
leaf_weight=40.243863686919212 3.4579216092824927 14.022417128086088 3.5920374542474738 4.7179027348756817
leaf_count=226 15 51 16 19
internal_value=0 0.018033 0.0112285 0.0170719
internal_weight=0 25.7903 11.7679 8.17582
internal_count=327 101 50 34
is_linear=0
shrinkage=0.01


Tree=87
num_leaves=9
num_cat=0
split_feature=9 12 11 5 12 31 7 32
split_gain=101.902 10.8713 10.9499 3.31803 0.995007 1.7857 0.7419 0.43112
threshold=1.0000000180025095e-35 1.0558315854776785 0.66066035548472291 0.91903710418115792 -0.82566650706596345 -1.0000000180025095e-35 -0.86375327950045844 1.418553404698649
decision_type=2 2 2 2 2 2 2 2
left_child=3 2 4 6 5 -2 -1 -8
right_child=1 -3 -4 -5 -6 -7 7 -9
leaf_value=-0.0081774081475594514 0.0069389674324547099 -0.0037678416890538887 0.0002703597059681796 -0.0037797987467115962 0.015203603249392668 0.015057111868582183 -0.012394459496861739 -0.0084915641493508408
leaf_weight=8.2586152851581556 5.6066604256629944 4.9004241526126853 6.9925296902656546 7.4121083021163932 25.232521116733551 6.2317415177822095 29.143923431634903 4.6812822818756095
leaf_count=28 18 16 23 25 81 20 100 16
internal_value=0 0.0102517 0.0118246 -0.0100849 0.0139873 0.0112998 -0.0111778 -0.0118824
internal_weight=0 48.9639 44.0635 49.4959 37.0709 11.8384 42.0838 33.8252
internal_count=327 158 142 169 119 38 144 116
is_linear=0
shrinkage=0.01


Tree=88
num_leaves=7
num_cat=0
split_feature=12 9 12 12 9 34
split_gain=86.9087 15.0317 4.28008 4.19801 4.09361 0.144989
threshold=0.58313994646425105 0.29682394443225874 1.0558315854776785 0.25741965739617506 -1.0000000180025095e-35 -0.56454624873651493
decision_type=2 2 2 2 2 2
left_child=3 2 -2 -1 -5 -4
right_child=1 -3 5 4 -6 -7
leaf_value=-0.0097078257438030068 0.012942993865515284 -0.0014534297634960847 0.021869698895769701 0.0042614001444771388 -0.0095026200674877808 0.027067270428592471
leaf_weight=37.907297521829605 4.5592849701643017 3.4489266425371161 4.4489360600709915 4.7361150681972504 3.8591910749673826 6.1967869400978071
leaf_count=208 19 16 17 22 21 24
internal_value=0 0.0172448 0.0215098 -0.00827526 -0.00187986 0.0250543
internal_weight=0 18.6539 15.205 46.5026 8.59531 10.6457
internal_count=327 76 60 251 43 41
is_linear=0
shrinkage=0.01


Tree=89
num_leaves=4
num_cat=0
split_feature=13 13 21
split_gain=65.3705 9.10407 9.95985
threshold=1.6615850103377905 0.96345234709072691 0.45525255123115388
decision_type=2 2 2
left_child=1 -1 -3
right_child=-2 2 -4
leaf_value=-0.0085380771330745061 0.042921274882116507 -0.0081839656987866497 0.026041628307573731
leaf_weight=21.909588851034648 2.9847106933593741 1.618920020759105 1.6658089980483053
leaf_count=279 16 17 15
internal_value=0 -0.00619817 0.00915339
internal_weight=0 25.1943 3.28473
internal_count=327 311 32
is_linear=0
shrinkage=0.01


Tree=90
num_leaves=11
num_cat=0
split_feature=17 14 9 17 25 14 9 14 23 7
split_gain=11.4826 4.14572 6.54976 7.21929 4.27067 3.6095 5.48835 0.982125 1.70675 0.464858
threshold=-1.2908262583901251 -0.6763563149555063 -1.0000000180025095e-35 0.51193554414838205 -0.72977411210803278 0.24782056821247475 -0.36910474571804669 0.57252398056560827 0.17751655573769598 0.75715738192299864
decision_type=2 2 2 2 2 2 2 2 2 2
left_child=-1 2 3 -2 5 6 -3 -6 -9 -4
right_child=1 4 9 -5 7 -7 -8 8 -10 -11
leaf_value=0.01952481899956875 0.027800758533401575 0.019706891435989887 -0.0081439578433497237 -0.001462963101488312 -0.0085329475105420296 -0.0081399871913986864 -0.0032462803228686587 -0.0081030465289395944 0.0068803155486868066 0
leaf_weight=2.7549263611435917 1.8431094586849215 2.0412518456578255 1.9024577662348812 1.4553813114762304 10.743935517966735 1.8953059911727903 1.9893884956836778 1.7796245217323314 1.2287230044603346 1.179590471088886
leaf_count=25 15 19 23 16 131 23 25 22 14 14
internal_value=0 -0.00176459 0.00517894 0.0149105 -0.00404875 0.00297139 0.00835448 -0.00710981 -0.00180735 -0.00514812
internal_weight=0 26.0588 6.38054 3.29849 19.6782 5.92595 4.03064 13.7523 3.00835 3.08205
internal_count=327 302 68 31 234 67 44 167 36 37
is_linear=0
shrinkage=0.01


Tree=91
num_leaves=15
num_cat=0
split_feature=9 12 10 12 9 13 13 8 8 9 12 31 13 20
split_gain=23.0411 15.7718 9.43333 7.28417 7.04417 6.83274 2.73177 2.53575 2.52726 5.4151 0.972931 0.317878 0.107469 0.0898665
threshold=0.1466144654509868 1.0558315854776785 -0.46725977064074214 -0.74225033547535868 -0.85603380674900309 -0.32597087370730798 0.15555039716959723 0.20449237634837464 0.45487548202849953 0.74369714440154289 -1.1964050474686514 -0.32439560961235137 -0.32597087370730798 -0.41754677604007062
decision_type=2 2 2 2 2 2 2 2 2 2 2 2 2 2
left_child=1 2 6 7 11 -6 -1 -4 10 -10 -2 -5 -3 -11
right_child=8 12 3 4 5 -7 -8 -9 9 13 -12 -13 -14 -15
leaf_value=0.024391947279658037 -0.0027318968855672039 -0.0095416043608754549 0.0069602771522829666 0.011780158714268409 0.0081662734459847751 -0.0097157079519917307 0.012716712220282081 0.019341492262502251 0.006986533587772961 -0.0057934142841058927 -0.0095787223047544678 0.0066550969531741257 -0.0058095245188513039 -0.0094127781272894603
leaf_weight=3.5419090688228589 2.7588717490434673 3.869898721575737 3.3158017247915259 3.4640355110168457 3.108585700392724 6.4631534069776544 5.8910101652145386 3.839812383055687 3.9461314082145673 2.6908489465713501 13.670147821307184 3.3607632070779827 2.6205469518899909 3.384788766503334
leaf_count=13 14 21 15 15 14 34 26 15 19 15 78 15 14 19
internal_value=0 0.00599657 0.00880683 0.00537114 0.0016483 -0.00384401 0.0172588 0.0137617 -0.00605211 -0.00201461 -0.00847108 0.00939589 -0.00816714 -0.00795179
internal_weight=0 39.4755 32.9851 23.5522 16.3965 9.57174 9.43292 7.15561 26.4508 10.0218 16.429 6.8248 6.49045 6.07564
internal_count=327 182 147 108 78 48 39 30 145 53 92 30 35 34
is_linear=0
shrinkage=0.01


Tree=92
num_leaves=17
num_cat=0
split_feature=10 13 18 7 32 7 23 27 8 18 18 7 7 29 10 26
split_gain=12.1316 10.5061 4.20553 6.0492 6.71485 4.82714 3.88408 3.70763 3.08501 2.87275 2.64457 2.34331 2.30701 2.11759 1.95996 1.05868
threshold=1.3404792881977061 0.96345234709072691 -0.89317886672533076 0.49773159385194038 0.11034834739804057 -0.64940596270360451 0.19206732310814639 -0.26745881055446574 -0.052044548089692173 -1.1746649334996033 -0.21588218349466543 -0.71530490421435666 -0.38067038559262595 0.097235221055809243 -0.46725977064074214 -0.51810329435464986
decision_type=2 2 2 2 2 2 2 2 2 2 2 2 2 2 2 2
left_child=1 2 5 4 6 -1 11 -5 -3 -7 -6 -4 -13 -8 -12 -9
right_child=-2 8 3 7 10 9 13 15 -10 -11 14 12 -14 -15 -16 -17
leaf_value=0.0049510094118086056 -0.013107549029397543 -0.011471203335072065 0.00081010540373739051 0.0024874827597695169 0.00043066386376810117 -0.0010294713175610379 -0.0011103623962991633 0.0087345189579925396 -0.0019349281324206582 -0.012378645127139496 0.0036172333381826465 -0.01264963369968003 -0.0033813469888134802 0.0084138443568466132 0.011547840296474734 0.015621446517079578
leaf_weight=5.4443921446800223 6.5135881006717673 7.3234774768352509 5.7003730535507193 6.3359006047248867 6.0058469176292446 4.4865888357162467 4.5323984324932081 5.2182358503341684 6.597632944583891 4.6213844120502463 5.4230942726135263 4.4037868082523328 7.4411445856094431 4.5738427937030792 8.3069190979003871 5.2762503623962376
leaf_count=18 22 25 19 21 20 15 15 17 22 16 18 15 25 15 27 17
internal_value=0 0.000965556 0.00240332 0.00352185 0.00164125 -0.00241693 -0.00161767 0.00865526 -0.00701056 -0.00687878 0.00606038 -0.00437677 -0.00690789 0.00363863 0.00847618 0.0123021
internal_weight=0 91.6913 77.7702 63.2178 46.3874 14.5524 26.6515 16.8304 13.9211 9.10797 19.7359 17.5453 11.8449 9.10624 13.73 10.4945
internal_count=327 305 258 209 154 49 89 55 47 31 65 59 40 30 45 34
is_linear=0
shrinkage=0.01


Tree=93
num_leaves=7
num_cat=0
split_feature=12 9 12 13 12 34
split_gain=84.8643 14.4476 4.18326 6.45655 4.06771 0.127709
threshold=0.58313994646425105 0.29682394443225874 0.25741965739617506 0.15555039716959723 1.0558315854776785 -0.56454624873651493
decision_type=2 2 2 2 2 2
left_child=2 4 -1 -4 -2 -6
right_child=1 -3 3 -5 5 -7
leaf_value=-0.009686862654322977 0.012719931428911072 -0.001441890161128369 -0.0095665733931904924 0.0077866391691997338 0.021400067050798964 0.026429444157261638
leaf_weight=37.595571935176849 4.5924961566925075 3.4448808282613745 4.7936016619205457 3.7788117527961731 4.4987269341945648 6.2824962735176069
leaf_count=208 19 16 26 17 17 24
internal_value=0 0.0169181 -0.00824767 -0.00185831 0.0210559 0.0244855
internal_weight=0 18.8186 46.168 8.57241 15.3737 10.7812
internal_count=327 76 251 43 60 41
is_linear=0
shrinkage=0.01


Tree=94
num_leaves=4
num_cat=0
split_feature=13 13 21
split_gain=62.5969 8.98902 9.5679
threshold=1.6615850103377905 0.96345234709072691 0.45525255123115388
decision_type=2 2 2
left_child=1 -1 -3
right_child=-2 2 -4
leaf_value=-0.0085320599769569856 0.041260513633882091 -0.0081741628700998294 0.025243339250204104
leaf_weight=21.715643800795085 3.0779068022966376 1.607571437954902 1.7045692503452299
leaf_count=279 16 17 15
internal_value=0 -0.00617933 0.00899484
internal_weight=0 25.0278 3.31214
internal_count=327 311 32
is_linear=0
shrinkage=0.01


Tree=95
num_leaves=4
num_cat=0
split_feature=10 7 7
split_gain=73.6688 9.70377 4.31844
threshold=1.1365989432159262 -0.55801542492009271 0.4642545988183952
decision_type=2 2 2
left_child=-1 -2 -3
right_child=1 2 -4
leaf_value=-0.0085534607510546843 0.011941349289418247 0.047198461301302209 0.025210608020864937
leaf_weight=22.052934490144256 2.3355612307786942 2.4289874359965316 1.9823727384209631
leaf_count=275 20 17 15
internal_value=0 0.0290909 0.0378229
internal_weight=0 6.74692 4.41136
internal_count=327 52 32
is_linear=0
shrinkage=0.01


Tree=96
num_leaves=5
num_cat=0
split_feature=11 11 17 5
split_gain=116.226 9.07657 8.58104 7.03395
threshold=0.4253384539594296 1.0224677790798615 -0.43106258090773225 0.74419817169333446
decision_type=2 2 2 2
left_child=-1 2 -2 -4
right_child=1 -3 3 -5
leaf_value=-0.0096128217753136905 -0.0019099064723136162 0.022937249264123088 0.024444708738946615 0.005609982280773018
leaf_weight=39.753110453486443 3.5730954706668845 14.235277593135832 4.7301478832960147 3.5910978019237518
leaf_count=226 16 51 19 15
internal_value=0 0.0175144 0.0109136 0.0164582
internal_weight=0 26.1296 11.8943 8.32125
internal_count=327 101 50 34
is_linear=0
shrinkage=0.01


Tree=97
num_leaves=11
num_cat=0
split_feature=9 11 9 14 9 10 13 20 0 0
split_gain=98.4693 9.54116 4.39691 4.35638 2.65213 3.01231 4.16953 2.71982 0.718021 0.306125
threshold=1.0000000180025095e-35 0.84597635293589135 0.29682394443225874 0.079546335592874065 -0.54434913786286387 -0.46725977064074214 -0.32597087370730798 -1.0000000180025095e-35 39.500000000000007 48.500000000000007
decision_type=2 2 2 2 2 2 2 2 2 2
left_child=4 2 3 -2 -1 -6 -7 -8 -4 -10
right_child=1 -3 8 -5 5 6 7 -9 9 -11
leaf_value=-0.012409281076294829 0.011788191857847486 -0.0023494767050123919 0.015097286912043156 0.00055684236135534137 -0.012559889821734702 -0.01123190794623836 0.0042848102736239239 -0.0059582533624467672 0.0088536868528310639 0.013303588205489301
leaf_weight=23.758572846651077 8.0690873563289625 5.417474925518035 19.577375978231434 6.1878111362457267 8.4236699342727679 6.728038072586064 4.8627962768077877 5.3947050571441588 4.6478971242904645 4.9807319641113281
leaf_count=83 26 18 63 20 29 23 16 18 15 16
internal_value=0 0.010069 0.0116293 0.00696747 -0.00996381 -0.00763768 -0.00513754 -0.00105656 0.013872 0.011264
internal_weight=0 48.8804 43.4629 14.2569 49.1678 25.4092 16.9855 10.2575 29.206 9.62863
internal_count=327 158 140 46 169 86 57 34 94 31
is_linear=0
shrinkage=0.01


Tree=98
num_leaves=13
num_cat=0
split_feature=9 18 15 7 16 21 24 0 18 23 14 16
split_gain=17.7129 5.04397 3.63751 5.99188 5.7671 2.78628 2.45379 4.87006 0.756272 0.675454 0.631511 0.163929
threshold=-0.21138479278771125 0.91891946501347621 0.074275125862833968 -0.16161136396893208 0.34807107023084094 -0.11256174559198208 0.758535078273887 36.500000000000007 0.96454649779505353 1.1665967275908304 -0.55387118211105346 1.1291277596266498
decision_type=2 2 2 2 2 2 2 2 2 2 2 2
left_child=1 2 4 5 10 -4 8 -8 9 11 -1 -2
right_child=6 -3 3 -5 -6 -7 7 -9 -10 -11 -12 -13
leaf_value=-0.0033368939947024342 -0.0096164320620800523 0.012016363891403483 -0.0051443651439063579 0.014381451294019597 0.0063631533484505244 0.0059913030187493544 -0.0094254770406294302 0.0076728823758446729 -0.0025063135983268464 -0.0039245664538837457 -0.0096301923512465311 -0.0061939603978666755
leaf_weight=3.0197972208261481 15.845124378800405 6.5188928693532935 4.1765553057193747 5.0400330275297156 5.2265391796827316 4.7213720381259909 3.2584363818168631 3.2945453524589539 2.7966415435075751 3.4289963841438285 4.5445016920566585 2.9581027328968039
leaf_count=15 89 29 21 21 24 21 18 16 15 18 24 16
internal_value=0 0.00414641 0.00218948 0.00572248 -0.00162872 0.000708968 -0.00630048 -0.000760458 -0.00772661 -0.00835374 -0.00722188 -0.00912239
internal_weight=0 33.2477 26.7288 13.938 12.7908 8.89793 31.5818 6.55298 25.0289 22.2322 7.5643 18.8032
internal_count=327 155 126 63 63 42 172 34 138 123 39 105
is_linear=0
shrinkage=0.01


Tree=99
num_leaves=4
num_cat=0
split_feature=13 13 5
split_gain=60.1706 8.87236 4.94993
threshold=1.6615850103377905 0.96345234709072691 -0.063085013847330076
decision_type=2 2 2
left_child=1 -1 -3
right_child=-2 2 -4
leaf_value=-0.0085261152376336306 0.039811611216150337 0.021209083889394902 -0.0026746448918061679
leaf_weight=21.531821146607406 3.1635492146015158 1.6101581230759623 1.7304582148790348
leaf_count=279 16 15 17
internal_value=0 -0.00616155 0.00883271
internal_weight=0 24.8724 3.34062
internal_count=327 311 32
is_linear=0
shrinkage=0.01


Tree=100
num_leaves=4
num_cat=0
split_feature=10 10 25
split_gain=64.3852 8.72096 1.80058
threshold=1.1365989432159262 1.6615908315440093 1.0000000180025095e-35
decision_type=2 2 2
left_child=-1 2 -2
right_child=1 -3 -4
leaf_value=-0.0085470066390452275 0.023088596519168083 0.039919652890176377 0.0079399011403146237
leaf_weight=21.025205910205845 1.8163165971636765 2.9900231957435608 1.7216593474149702
leaf_count=264 15 19 15
internal_value=0 0.0272901 0.0160696
internal_weight=0 6.528 3.53798
internal_count=313 49 30
is_linear=0
shrinkage=0.01


Tree=101
num_leaves=5
num_cat=0
split_feature=11 11 25 11
split_gain=97.7412 5.44303 5.09459 0.712494
threshold=0.66066035548472291 1.0224677790798615 0.37305989191266409 0.24002245650826112
decision_type=2 2 2 2
left_child=3 2 -2 -1
right_child=1 -3 -4 -5
leaf_value=-0.0095881434611452994 0.0048124620719671206 0.022373196698733413 0.020375588339964772 -0.0047996270830285527
leaf_weight=37.632074102759361 5.0472580045461672 11.244685530662535 3.7540728747844696 4.0372380614280692
leaf_count=216 21 40 15 21
internal_value=0 0.017702 0.0115848 -0.00914249
internal_weight=0 20.046 8.80133 41.6693
internal_count=313 76 36 237
is_linear=0
shrinkage=0.01


Tree=102
num_leaves=9
num_cat=0
split_feature=9 11 12 5 10 20 7 32
split_gain=96.9962 11.2669 6.28196 3.44449 1.52007 0.390417 0.377929 0.371308
threshold=1.0000000180025095e-35 0.84597635293589135 0.58313994646425105 0.91903710418115792 0.9225245809850573 -0.96214545862408485 -1.0278168806552503 1.418553404698649
decision_type=2 2 2 2 2 2 2 2
left_child=3 2 4 6 5 -2 -1 -8
right_child=1 -3 -4 -5 -6 -7 7 -9
leaf_value=-0.0082115605046679477 0.010820400694486833 -0.0023610873260941777 0.0011956678997452365 -0.0041043887342419906 0.0080483568105277677 0.014805627576896614 -0.012516146525028405 -0.0090425878908362255
leaf_weight=4.3925384879112235 4.6591119766235343 6.3185512125492087 4.9333800375461569 7.6760448813438407 5.2905458211898795 26.062698721885685 28.784367144107819 5.5129916965961447
leaf_count=15 15 21 16 26 17 84 100 19
internal_value=0 0.00998586 0.0119039 -0.0103604 0.0133533 0.0142361 -0.0115818 -0.0119863
internal_weight=0 47.2643 40.9457 46.3659 36.0124 30.7218 38.6899 34.2974
internal_count=313 153 132 160 116 99 134 119
is_linear=0
shrinkage=0.01


Tree=103
num_leaves=6
num_cat=0
split_feature=12 12 12 15 18
split_gain=100.028 7.97561 5.12094 6.72732 1.14124
threshold=0.58313994646425105 0.83338846123606547 0.25741965739617506 0.11800442761049661 0.024115474009032713
decision_type=2 2 2 2 2
left_child=2 -2 -1 -4 -3
right_child=1 4 3 -5 -6
leaf_value=-0.0096497131781375471 0.0072407801974699385 0.02549113322034674 -0.0079046581861380496 0.0099288450946626219 0.018833461167372192
leaf_weight=34.41328489780426 4.3914350271225002 8.830188646912573 5.4855375289916974 3.3651261925697327 6.2190490514039984
leaf_count=193 19 33 29 15 24
internal_value=0 0.019373 -0.00790528 -0.00105029 0.0228445
internal_weight=0 19.4407 43.2639 8.85066 15.0492
internal_count=313 76 237 44 57
is_linear=0
shrinkage=0.01


Tree=104
num_leaves=4
num_cat=0
split_feature=13 13 11
split_gain=71.8036 4.0913 5.74456
threshold=1.6615850103377905 0.96345234709072691 -0.17767391869913463
decision_type=2 2 2
left_child=1 -1 -3
right_child=-2 2 -4
leaf_value=-0.008516272426898357 0.038449653671209963 -0.0082978744198819072 0.018246251064073404
leaf_weight=20.017540521919734 4.0717062205076209 1.75260316580534 1.424680821597575
leaf_count=262 20 17 14
internal_value=0 -0.00683813 0.00354776
internal_weight=0 23.1948 3.17728
internal_count=313 293 31
is_linear=0
shrinkage=0.01


Tree=105
num_leaves=4
num_cat=0
split_feature=10 10 25
split_gain=62.2791 8.03886 1.69914
threshold=1.1365989432159262 1.6615908315440093 1.0000000180025095e-35
decision_type=2 2 2
left_child=-1 2 -2
right_child=1 -3 -4
leaf_value=-0.0085406114731553205 0.022432394505360158 0.038353649720609832 0.0077928462121251785
leaf_weight=20.833222813904289 1.8534981608390801 3.0853638052940369 1.7359328791499136
leaf_count=264 15 19 15
internal_value=0 0.0264499 0.0156941
internal_weight=0 6.67479 3.58943
internal_count=313 49 30
is_linear=0
shrinkage=0.01


Tree=106
num_leaves=5
num_cat=0
split_feature=11 11 34 11
split_gain=95.4849 5.24867 2.58415 0.710615
threshold=0.66066035548472291 1.0224677790798615 -1.0000000180025095e-35 0.24002245650826112
decision_type=2 2 2 2
left_child=3 2 -2 -1
right_child=1 -3 -4 -5
leaf_value=-0.0095679201216913763 0.017107738771904458 0.021941874360272621 0.0059897868121761375 -0.0047771081572854845
leaf_weight=37.308491930365562 4.2018243670463562 11.346186876296995 4.6577629148960131 4.0243370234966269
leaf_count=216 17 40 19 21
internal_value=0 0.0173773 0.0113852 -0.00911988
internal_weight=0 20.2058 8.85959 41.3328
internal_count=313 76 36 237
is_linear=0
shrinkage=0.01


Tree=107
num_leaves=9
num_cat=0
split_feature=9 11 12 5 14 9 21 7
split_gain=95.0522 10.9673 6.11128 3.40753 0.929187 1.55372 0.403082 0.537297
threshold=1.0000000180025095e-35 0.84597635293589135 0.58313994646425105 0.91903710418115792 0.13696716277366333 0.74369714440154289 1.5031543070963063 -0.94446753746963885
decision_type=2 2 2 2 2 2 2 2
left_child=3 2 4 6 -2 -6 7 -1
right_child=1 -3 -4 -5 5 -7 -8 -9
leaf_value=-0.0081018244515325237 0.014328158890448306 -0.0023062215140319683 0.0012121542571952345 -0.0040586205169384571 0.0063123611644879422 0.014332880047988003 -0.0080511700425546038 -0.012448293214695341
leaf_weight=4.3694177865982047 25.413171052932739 6.3086157739162436 4.9309942424297324 7.6589527428150168 5.2809355556964857 5.2583949863910675 4.3558181524276725 29.781059235334396
leaf_count=15 82 21 16 26 17 17 15 104
internal_value=0 0.00988417 0.011778 -0.0102869 0.0132095 0.01041 -0.0115059 -0.0119195
internal_weight=0 47.1921 40.8835 46.1652 35.9525 10.5393 38.5063 34.1505
internal_count=313 153 132 160 116 34 134 119
is_linear=0
shrinkage=0.01


Tree=108
num_leaves=6
num_cat=0
split_feature=12 12 12 15 18
split_gain=97.3983 7.65061 5.0924 6.58068 1.09913
threshold=0.58313994646425105 0.83338846123606547 0.25741965739617506 0.11800442761049661 0.024115474009032713
decision_type=2 2 2 2 2
left_child=2 -2 -1 -4 -3
right_child=1 4 3 -5 -6
leaf_value=-0.0096288842432704393 0.0071167435635362689 0.024937607755034744 -0.0078719679584893457 0.0097544081486653552 0.018434502322412071
